{"learner":{"attributes":{"scikit_learn":"{\"use_label_encoder\": false, \"n_estimators\": 100, \"objective\": \"binary:logistic\", \"max_depth\": 7, \"learning_rate\": 0.25, \"verbosity\": null, \"booster\": null, \"tree_method\": null, \"gamma\": 1.5, \"min_child_weight\": 1, \"max_delta_step\": null, \"subsample\": 0.8, \"colsample_bytree\": 0.6, \"colsample_bylevel\": null, \"colsample_bynode\": null, \"reg_alpha\": null, \"reg_lambda\": null, \"scale_pos_weight\": null, \"base_score\": null, \"missing\": NaN, \"num_parallel_tree\": null, \"kwargs\": {\"grow_policy\": \"lossguide\"}, \"random_state\": null, \"n_jobs\": null, \"monotone_constraints\": null, \"interaction_constraints\": null, \"importance_type\": \"gain\", \"gpu_id\": null, \"validate_parameters\": null, \"classes_\": [0, 1], \"n_classes_\": 2, \"_estimator_type\": \"classifier\"}"},"feature_names":[],"feature_types":[],"gradient_booster":{"model":{"gbtree_model_param":{"num_trees":"100","size_leaf_vector":"0"},"tree_info":[0,0,0,0,0,0,0,0,0,0,0,0,0,0,0,0,0,0,0,0,0,0,0,0,0,0,0,0,0,0,0,0,0,0,0,0,0,0,0,0,0,0,0,0,0,0,0,0,0,0,0,0,0,0,0,0,0,0,0,0,0,0,0,0,0,0,0,0,0,0,0,0,0,0,0,0,0,0,0,0,0,0,0,0,0,0,0,0,0,0,0,0,0,0,0,0,0,0,0,0],"trees":[{"base_weights":[-5.6263446E-3,-1.6515609E0,7.993105E-1,-1.9274925E0,-1.093093E0,4.5884413E-1,1.6E0,1.6666666E0,-1.1888545E0,-4.7531992E-2,1.1395731E0,-1.5789474E0,1.6451883E0,-9.184149E-1,-1.6923077E0,2.837723E-1,-8.803419E-1,7.2527474E-1,1.4674556E0,1.2201258E0,1.7911464E0,-1.1327913E0,3.75E-1,-1.8446602E0,3.1578946E-1,-7.4396133E-1,5.010267E-1,-8.494209E-2,-1.8309859E0,-1.4782609E0,8.159393E-1,1.4932936E0,-1.1111112E0,1.3758866E0,-0E0,1.7993158E0,-0E0,-1.7671958E0,-4.5652175E-1,1.3636364E0,-1.5E0,1.3846154E0,-1.2E0,-1.25E0,9.019608E-1,6.079484E-1,-1.6595745E0,-1.8E0,2.2421524E-1,-1.84689E0,-5E-1,1.1174785E0,2.1978022E-1,1.5330261E0,1.6666667E-1,1.4962963E0,-1E0,-1.5555556E0,1.0769231E0,1.5096774E0,1.8512397E0,-1.879518E0,-8.148148E-1,-1.7948718E-1,-1.75E0,-5E-1,1.6E0,-1.479452E0,8.888889E-1,1.5121951E0,-1.1428572E0,3.4502104E-1,1.4414414E0,1.1034483E0,-8.2840234E-2,-1.3333334E0,1.2358209E0,-1.2258065E0,9.354839E-1,5E-1,1.5625991E0,-1.2E0,8.888889E-1,-5E-1,1.5338346E0,-0E0,-1.3333334E0,1.8181819E-1,1.3684211E0,-9.0909094E-1,1.6486486E0],"categories":[],"categories_nodes":[],"categories_segments":[],"categories_sizes":[],"default_left":[true,true,true,false,true,true,true,false,true,true,true,false,true,true,true,true,true,true,true,true,true,true,true,false,true,true,true,true,true,false,true,true,false,true,true,true,false,true,true,true,false,false,false,true,true,true,false,false,true,true,true,true,true,true,true,true,true,false,true,true,false,false,false,false,false,false,false,false,false,false,false,false,false,false,false,false,false,false,false,false,false,false,false,false,false,true,true,true,true,false,false],"id":0,"left_children":[1,3,5,-1,7,9,11,-1,13,15,17,-1,19,21,23,25,27,29,31,33,35,37,39,-1,41,43,45,47,-1,-1,51,53,-1,55,57,59,-1,61,63,65,-1,-1,-1,67,69,71,-1,-1,73,-1,-1,75,77,79,81,83,-1,-1,-1,89,-1,-1,-1,-1,-1,-1,-1,-1,-1,-1,-1,-1,-1,-1,-1,-1,-1,-1,-1,-1,-1,-1,-1,-1,-1,-1,-1,-1,-1,-1,-1],"loss_changes":[2.0028726E3,7.440332E1,2.76031E2,0E0,4.598378E1,2.4608728E2,4.6052124E1,0E0,2.0434586E1,1.1344333E2,4.0299347E1,0E0,1.6349426E1,3.0162827E1,1.7485626E1,6.6072784E1,8.8313095E1,2.8476486E1,1.2918823E1,1.5108795E1,3.2228394E0,3.877112E1,3.1704544E1,0E0,9.357084E0,4.423004E1,5.726115E1,3.4735508E1,2.0375061E-1,0E0,2.3438484E1,8.586639E0,0E0,2.1664932E1,1.8427351E1,5.025635E-1,0E0,3.5230408E0,1.6169453E1,5.6454544E0,0E0,0E0,0E0,2.0945969E1,1.7637903E1,5.05094E1,0E0,0E0,1.5142424E1,0E0,0E0,2.6953316E1,4.8221554E1,4.1906433E0,6.988889E0,5.8251953E0,1.3333335E0,0E0,1.4471846E0,1.4524162E1,0E0,0E0,0E0,0E0,0E0,0E0,0E0,0E0,0E0,0E0,0E0,0E0,0E0,0E0,0E0,0E0,0E0,0E0,0E0,0E0,0E0,0E0,0E0,0E0,0E0,0E0,0E0,0E0,0E0,0E0,0E0],"parents":[2147483647,0,0,1,1,2,2,4,4,5,5,6,6,8,8,9,9,10,10,12,12,13,13,14,14,15,15,16,16,17,17,18,18,19,19,20,20,21,21,22,22,24,24,25,25,26,26,27,27,28,28,30,30,31,31,33,33,34,34,35,35,37,37,38,38,39,39,43,43,44,44,45,45,48,48,51,51,52,52,53,53,54,54,55,55,56,56,58,58,59,59],"right_children":[2,4,6,-1,8,10,12,-1,14,16,18,-1,20,22,24,26,28,30,32,34,36,38,40,-1,42,44,46,48,-1,-1,52,54,-1,56,58,60,-1,62,64,66,-1,-1,-1,68,70,72,-1,-1,74,-1,-1,76,78,80,82,84,-1,-1,-1,90,-1,-1,-1,-1,-1,-1,-1,-1,-1,-1,-1,-1,-1,-1,-1,-1,-1,-1,-1,-1,-1,-1,-1,-1,-1,-1,-1,-1,-1,-1,-1],"split_conditions":[4.900218E1,3.8021828E1,5E-1,-4.8187312E-1,3.899859E1,7.100983E1,5.5007095E1,4.1666666E-1,9.7770004E1,5E-1,5E-1,-3.9473686E-1,1.0340524E2,9.3695E1,2.2401772E2,2.7124577E1,5E-1,2.13E1,3.725E1,5E-1,8.1969055E1,5E-1,5E-1,-4.6116504E-1,2.2946266E2,6.807108E1,2.12755E2,2.5603634E1,-4.5774648E-1,-3.6956522E-1,5E-1,8.194766E1,-2.777778E-1,9.448453E1,3.2804523E1,5E-1,-0E0,4.80384E1,8.6965E1,2.9616665E1,-3.75E-1,3.4615386E-1,-3E-1,2.0972928E2,9.7019684E1,1.5841501E2,-4.1489363E-1,-4.5E-1,6.827E1,-4.617225E-1,-1.25E-1,6.847E1,7.85E1,2.3411215E1,1.7951038E2,5.8372616E1,-2.5E-1,-3.888889E-1,2.6923078E-1,2.640158E1,4.6280992E-1,-4.698795E-1,-2.037037E-1,-4.4871796E-2,-4.375E-1,-1.25E-1,4E-1,-3.69863E-1,2.2222222E-1,3.7804878E-1,-2.857143E-1,8.625526E-2,3.6036035E-1,2.7586207E-1,-2.0710059E-2,-3.3333334E-1,3.0895522E-1,-3.0645162E-1,2.3387097E-1,1.25E-1,3.9064977E-1,-3E-1,2.2222222E-1,-1.25E-1,3.8345864E-1,-0E0,-3.3333334E-1,4.5454547E-2,3.4210527E-1,-2.2727273E-1,4.1216215E-1],"split_indices":[0,0,2,0,0,0,0,0,4,15,6,0,4,4,4,5,8,5,5,15,0,6,8,0,4,0,4,5,4,0,15,0,0,4,5,6,0,0,4,5,0,0,0,4,4,4,0,0,4,2147483647,2147483647,4,0,5,4,0,0,0,0,5,0,0,0,0,0,0,0,0,0,0,0,0,0,0,0,0,0,0,0,0,0,0,0,0,0,2147483647,2147483647,2147483647,2147483647,0,0],"split_type":[0,0,0,0,0,0,0,0,0,0,0,0,0,0,0,0,0,0,0,0,0,0,0,0,0,0,0,0,0,0,0,0,0,0,0,0,0,0,0,0,0,0,0,0,0,0,0,0,0,0,0,0,0,0,0,0,0,0,0,0,0,0,0,0,0,0,0,0,0,0,0,0,0,0,0,0,0,0,0,0,0,0,0,0,0,0,0,0,0,0,0],"sum_hessian":[1.50975E3,4.955E2,1.01425E3,3.3E2,1.655E2,7.1275E2,3.015E2,5E0,1.605E2,4.0925E2,3.035E2,3.75E0,2.9775E2,1.0625E2,5.425E1,2.9325E2,1.16E2,1.355E2,1.68E2,7.85E1,2.1925E2,9.125E1,1.5E1,5.05E1,3.75E0,5.075E1,2.425E2,6.375E1,5.225E1,4.75E0,1.3075E2,1.6675E2,1.25E0,6.95E1,9E0,2.1825E2,1E0,4.625E1,4.5E1,1E1,5E0,2.25E0,1.5E0,3.9E1,1.175E1,2.3175E2,1.075E1,9E0,5.475E1,5.125E1,1E0,8.625E1,4.45E1,1.6175E2,5E0,6.65E1,3E0,3.5E0,5.5E0,3.775E1,1.805E2,4.05E1,5.75E0,3.8E1,7E0,1E0,9E0,3.55E1,3.5E0,9.25E0,2.5E0,1.7725E2,5.45E1,1.35E1,4.125E1,3.5E0,8.275E1,1.45E1,3E1,5E0,1.5675E2,1.5E0,3.5E0,1E0,6.55E1,1E0,2E0,1.75E0,3.75E0,1.75E0,3.6E1],"tree_param":{"num_deleted":"6","num_feature":"17","num_nodes":"91","size_leaf_vector":"0"}},{"base_weights":[1.6591477E-3,-4.8934588E-1,1.2057205E0,-6.8564206E-1,5.754638E-1,1.2826037E0,-3.473948E-1,-5.64088E-1,-1.5922612E0,8.8887805E-1,-8.111487E-1,1.3910781E0,4.7491598E-1,-1.5671961E0,1.3937361E0,-2.7424684E-1,-1.1691725E0,1.0121428E0,-1.2348008E0,-1.5335479E0,2.4170704E-1,1.6184869E0,9.465632E-1,7.1073455E-1,-1.486407E0,-1.4468415E-1,-1.7046393E0,-4.0167265E-4,-1.3303936E0,-1.0471449E0,-1.6166725E0,1.1585737E0,-4.4404188E-1,-4.3828863E-1,-1.3496358E0,1.444204E0,-1.1223413E0,1.6557823E0,-3.599034E-1,1.1116945E0,-4.674425E-1,-1.2264806E0,8.16544E-1,-3.4967062E-1,-1.7238458E0,3.9224833E-1,-1.0220733E0,-1.5123829E0,-1.4354107E-1,-1.1538543E0,3.9072186E-1,-1.6211879E0,1.245182E0,9.067853E-1,-1.3514369E0,-1.3055394E0,-2.606664E-1,-1.2878656E0,6.099072E-1,-5.3951377E-1,1.1807095E0,5.90732E-1,-1.0453262E0,1.1779554E0,4.9913886E-1,-1.1899743E0,4.8983127E-1,-1.5380946E0,-1.7319341E-1,-9.586181E-1,-1.6360253E0,6.122919E-1,-1.5034442E0,-1.3271474E0,-8.200704E-1,9.139139E-1,-5.597124E-1,1.4488673E0,6.576966E-1,-1.8434997E-1,1.2522296E0,-1.5261809E0,-3.5028243E-1,1.7296834E-1,-8.690709E-1,1.2691468E0,4.2704788E-1,-2.915849E-1,9.18098E-1,1.3851509E0,-8.135246E-1,-1.6391819E0,8.980936E-1],"categories":[],"categories_nodes":[],"categories_segments":[],"categories_sizes":[],"default_left":[true,true,true,true,true,true,true,true,false,true,true,true,true,true,false,true,true,true,true,false,true,true,true,true,true,false,false,true,true,true,false,true,true,true,true,false,true,false,true,true,true,false,true,true,true,true,true,true,true,true,true,false,true,true,true,true,true,false,false,true,true,true,false,true,true,false,false,false,false,false,false,false,false,false,false,false,false,false,false,false,false,true,true,true,true,false,false,false,false,false,false,false,false],"id":1,"left_children":[1,3,5,7,9,11,13,15,-1,17,19,21,23,25,-1,27,29,31,-1,-1,35,37,39,41,-1,-1,-1,45,47,49,-1,51,53,-1,-1,-1,-1,-1,57,59,61,-1,63,-1,-1,65,67,69,71,73,75,-1,77,79,-1,-1,-1,-1,-1,-1,85,87,-1,89,91,-1,-1,-1,-1,-1,-1,-1,-1,-1,-1,-1,-1,-1,-1,-1,-1,-1,-1,-1,-1,-1,-1,-1,-1,-1,-1,-1,-1],"loss_changes":[8.645908E2,2.1752602E2,5.1029236E1,9.581366E1,7.122781E1,3.4722046E1,4.6291958E1,1.356635E2,0E0,3.601519E1,2.351755E1,3.4405945E1,2.3874508E1,2.233076E0,0E0,1.5200221E2,1.20035095E1,2.739653E1,1.1606884E-1,0E0,2.3350946E1,1.7845703E1,2.9176933E1,1.0167177E1,9.136982E-1,0E0,0E0,1.6822488E2,2.3156174E1,3.112445E1,0E0,2.9663696E1,1.6230875E1,0E0,0E0,0E0,7.283373E-1,0E0,5.4175806E0,1.3194397E1,8.896048E0,0E0,4.3447895E0,0E0,0E0,4.735414E1,5.0730568E1,4.8486176E0,1.6843979E1,9.690933E0,7.7508435E0,0E0,1.2440201E1,2.3105416E0,8.1677055E-1,0E0,0E0,0E0,0E0,1.3495314E0,6.5288086E0,1.8334502E0,0E0,9.1198845E0,2.24833E1,0E0,0E0,0E0,0E0,0E0,0E0,0E0,0E0,0E0,0E0,0E0,0E0,0E0,0E0,0E0,0E0,0E0,0E0,0E0,0E0,0E0,0E0,0E0,0E0,0E0,0E0,0E0,0E0],"parents":[2147483647,0,0,1,1,2,2,3,3,4,4,5,5,6,6,7,7,9,9,10,10,11,11,12,12,13,13,15,15,16,16,17,17,18,18,20,20,21,21,22,22,23,23,24,24,27,27,28,28,29,29,31,31,32,32,36,36,38,38,39,39,40,40,42,42,45,45,46,46,47,47,48,48,49,49,50,50,52,52,53,53,54,54,59,59,60,60,61,61,63,63,64,64],"right_children":[2,4,6,8,10,12,14,16,-1,18,20,22,24,26,-1,28,30,32,-1,-1,36,38,40,42,-1,-1,-1,46,48,50,-1,52,54,-1,-1,-1,-1,-1,58,60,62,-1,64,-1,-1,66,68,70,72,74,76,-1,78,80,-1,-1,-1,-1,-1,-1,86,88,-1,90,92,-1,-1,-1,-1,-1,-1,-1,-1,-1,-1,-1,-1,-1,-1,-1,-1,-1,-1,-1,-1,-1,-1,-1,-1,-1,-1,-1,-1],"split_conditions":[5E-1,1.84325E2,5E-1,5E-1,5E-1,5E-1,2.0853E2,5E-1,-3.980653E-1,5E-1,2.268756E2,5E-1,5E-1,6.283E1,3.4843403E-1,5E-1,1.05925E2,5E-1,-3.087002E-1,-3.8338697E-1,2.2992499E2,3.6659112E0,5E-1,7.1023735E1,-3.7160176E-1,-3.6171038E-2,-4.2615983E-1,5E-1,1.2869E2,1.0365934E2,-4.0416813E-1,3.2600245E0,1.964307E2,-1.0957216E-1,-3.3740896E-1,3.61051E-1,-2.8058532E-1,4.139456E-1,2.0191309E2,3.2045984E0,7.3085E1,-3.0662015E-1,3.3889308E0,-8.7417655E-2,-4.3096146E-1,6.625943E1,1.02115005E2,3.1801329E0,1.4955571E2,8.892714E1,3.2267606E0,-4.0529698E-1,5E-1,1.9404303E2,-3.378592E-1,-3.2638484E-1,-6.51666E-2,-3.219664E-1,1.524768E-1,-1.3487844E-1,3.6231031E0,7.098538E1,-2.6133156E-1,2.0767215E2,1.05453804E2,-2.9749358E-1,1.2245782E-1,-3.8452366E-1,-4.3298353E-2,-2.3965453E-1,-4.0900633E-1,1.5307297E-1,-3.7586105E-1,-3.3178684E-1,-2.050176E-1,2.2847848E-1,-1.399281E-1,3.6221683E-1,1.6442415E-1,-4.6087492E-2,3.130574E-1,-3.8154522E-1,-8.757061E-2,4.3242086E-2,-2.1726772E-1,3.172867E-1,1.0676197E-1,-7.289623E-2,2.295245E-1,3.4628773E-1,-2.0338115E-1,-4.0979546E-1,2.245234E-1],"split_indices":[1,4,16,10,15,14,4,15,0,9,4,15,9,4,0,14,4,16,12,0,4,12,9,4,4,0,0,16,4,4,0,12,4,2147483647,2147483647,0,12,0,4,12,4,0,12,2147483647,2147483647,4,4,12,4,4,12,0,14,4,4,2147483647,2147483647,0,0,12,12,4,0,4,4,0,0,0,0,0,0,0,0,0,0,0,0,0,0,0,0,2147483647,2147483647,2147483647,2147483647,0,0,0,0,0,0,0,0],"split_type":[0,0,0,0,0,0,0,0,0,0,0,0,0,0,0,0,0,0,0,0,0,0,0,0,0,0,0,0,0,0,0,0,0,0,0,0,0,0,0,0,0,0,0,0,0,0,0,0,0,0,0,0,0,0,0,0,0,0,0,0,0,0,0,0,0,0,0,0,0,0,0,0,0,0,0,0,0,0,0,0,0,0,0,0,0,0,0,0,0,0,0,0,0],"sum_hessian":[1.4604352E3,1.0378168E3,4.226184E2,8.765771E2,1.6123969E2,4.0285046E2,1.9767962E1,7.743756E2,1.0220147E2,1.3180656E2,2.9433117E1,3.5451584E2,4.8334614E1,1.1682991E1,8.084971E0,5.2455975E2,2.4981583E2,1.25070496E2,6.7360682E0,1.7185213E1,1.2247903E1,2.3278482E2,1.2173102E2,4.3716064E1,4.6185513E0,1.2102108E0,1.047278E1,4.1734738E2,1.0721239E2,1.9891437E2,5.090145E1,1.13828514E2,1.1241982E1,1.4557127E0,5.2803555E0,6.4781933E0,5.7697096E0,2.2863774E2,4.1470795E0,1.0919297E2,1.2538046E1,1.7155449E0,4.200052E1,1.2252676E0,3.3932836E0,3.0192667E2,1.1542072E2,9.272055E1,1.4491836E1,1.8535596E2,1.3558419E1,2.9039931E0,1.1092452E2,4.517504E0,6.7244782E0,4.3333015E0,1.4364083E0,1.95167E0,2.1954093E0,4.1072893E0,1.05085686E2,4.4207993E0,8.117247E0,1.8371134E1,2.3629383E1,1.6889158E1,2.850375E2,7.1279236E1,4.414149E1,1.85213E1,7.419925E1,9.668079E0,4.8237567E0,1.2005172E2,6.530424E1,8.76946E0,4.7889595E0,8.127849E1,2.9646034E1,1.1984301E0,3.3190742E0,5.2787E0,1.4457784E0,1.4492497E0,2.6580393E0,9.343743E1,1.164825E1,1.2259415E0,3.1948576E0,1.6915672E1,1.4554621E0,3.2266214E0,2.0402763E1],"tree_param":{"num_deleted":"10","num_feature":"17","num_nodes":"93","size_leaf_vector":"0"}},{"base_weights":[6.732257E-3,-1.1984053E0,5.733043E-1,-1.3841096E0,-8.2604647E-1,2.3491465E-1,1.0894021E0,-1.2071148E0,-1.4853057E0,-1.305778E0,-4.4508532E-1,-1.1071787E-1,1.0899057E0,7.120602E-1,1.217738E0,-1.2923111E0,-6.421389E-1,-1.1388822E-1,-1.4969685E0,-9.31684E-3,-1.216316E0,1.1728915E-1,-1.3763846E0,-1.2344122E0,1.1518219E0,-3.8111386E-1,1.0298499E0,1.0570593E0,1.3295566E0,-1.4361781E0,-9.265178E-1,-1.3687724E0,9.774415E-1,-1.1752255E0,1.2487487E0,-1.5108325E0,-4.6634597E-1,-6.3428944E-1,1.2580701E0,-1.3828104E0,6.6521204E-1,3.609127E-1,-6.866749E-1,-1.595022E0,-9.248718E-1,1.2873603E0,-2.6045023E-3,-1.0901475E0,1.1304611E0,1.0662405E0,-6.3742644E-1,-4.0109867E-1,1.1044681E0,1.3850735E0,8.654313E-1,1.1624107E-1,-1.39683E0,-7.759014E-1,1.5657557E0,-1.2934287E0,-3.4468612E-1,1.2911932E0,-9.3744797E-1,1.4846582E0,-8.923656E-1,-1.469106E0,-3.980145E-1,-1.6022415E0,4.9541348E-1,-9.1912043E-1,5.3225297E-1,1.125657E0,-1.2018884E0,8.0441546E-1,1.34795E0,1.2956522E0,-4.8733786E-1,-4.452899E-1,-1.5299234E0,1.2245053E0,2.9429224E-1,-2.4736379E-1,1.0919292E0,-9.9139965E-1,3.8222873E-1,9.422349E-1,1.3752701E0,-6.965861E-2,1.3973522E0,-8.738776E-1,1.2874599E0,-7.975866E-1,1.2850859E0,-1.1002792E0,6.30598E-1,2.822409E-1,1.6617095E0,-5.6297684E-1,-3.8425125E-2,-1.5894197E-1,7.8195E-1,-4.4792473E-1,-1.3200923E0,1.3807085E0,-1.0228266E0,-1.4935814E0,-7.698636E-1,-1.2260814E0,1.3811579E0,1.370227E0,8.155201E-1,-1.562488E0,1.0589205E0,5.994011E-1,-1.1945237E0,1.1796167E0,5.825237E-1,1.266511E0,4.217564E-1,1.3974721E0,3.185284E-1,1.4121635E0,7.4210835E-1,-1.9306146E-1,-1.0636963E0,1.3765672E0,1.06574714E-1],"categories":[],"categories_nodes":[],"categories_segments":[],"categories_sizes":[],"default_left":[true,true,true,true,true,true,true,true,false,true,true,true,true,true,true,true,true,true,true,true,true,true,true,false,true,true,true,true,true,false,true,false,true,true,false,true,true,true,true,true,false,true,true,false,true,true,true,true,true,true,false,true,true,true,true,true,false,false,false,true,true,false,true,true,false,false,true,false,true,true,true,false,true,true,true,false,true,true,false,true,true,false,true,false,false,true,true,false,true,true,true,false,false,false,false,false,false,true,true,false,false,false,false,false,false,true,true,false,false,true,true,false,false,false,false,false,false,false,false,true,true,true,true,true,true,false,false],"id":2,"left_children":[1,3,5,7,9,11,13,15,-1,17,19,21,23,25,27,29,31,33,-1,37,39,41,43,-1,45,47,49,51,53,-1,55,-1,57,-1,-1,-1,-1,61,63,65,-1,67,69,-1,71,73,75,77,-1,81,-1,83,85,87,89,91,-1,-1,-1,-1,-1,-1,93,95,-1,-1,-1,-1,99,101,103,-1,-1,107,-1,-1,111,113,-1,-1,-1,-1,115,-1,-1,117,-1,-1,-1,-1,125,-1,-1,-1,-1,-1,-1,-1,-1,-1,-1,-1,-1,-1,-1,-1,-1,-1,-1,-1,-1,-1,-1,-1,-1,-1,-1,-1,-1,-1,-1,-1,-1,-1,-1,-1,-1],"loss_changes":[9.194067E2,2.8632568E1,1.5970184E2,3.3267212E0,2.6059845E1,1.6397517E2,1.6684692E1,4.4319305E0,0E0,1.4414711E1,2.7804802E1,1.14370834E2,2.440657E1,3.3184303E1,3.4285889E0,3.6163635E0,2.053453E1,1.5828515E1,8.236694E-2,4.3485588E1,1.0278305E1,6.6111435E1,4.4963303E0,0E0,2.4426056E1,2.4800041E1,5.133209E0,8.412445E0,2.789154E0,0E0,1.4557899E1,0E0,7.0277762E0,1.5276146E-1,0E0,0E0,0E0,2.2667624E1,1.0160843E1,1.7752838E0,0E0,6.910887E1,2.2744167E1,0E0,1.3915119E1,3.0031738E0,1.1580253E1,3.708065E0,2.3037243E-1,2.7067719E0,0E0,2.396727E0,3.6211243E0,2.5367126E0,1.5218771E1,1.1756564E1,0E0,0E0,0E0,0E0,0E0,0E0,8.950617E0,3.1034393E0,0E0,0E0,1.9244784E-1,0E0,4.5667046E1,1.1941532E1,1.8845612E1,0E0,1.3663464E0,2.2833065E1,3.371277E-1,0E0,2.3923042E1,6.732031E0,0E0,0E0,0E0,0E0,2.4846878E0,0E0,0E0,1.1814613E1,4.8755646E-1,0E0,2.6675415E-1,3.5612226E-1,1.5216923E0,0E0,0E0,0E0,0E0,0E0,0E0,0E0,0E0,0E0,0E0,0E0,0E0,0E0,0E0,0E0,0E0,0E0,0E0,0E0,0E0,0E0,0E0,0E0,0E0,0E0,0E0,0E0,0E0,0E0,0E0,0E0,0E0,0E0,0E0,0E0,0E0],"parents":[2147483647,0,0,1,1,2,2,3,3,4,4,5,5,6,6,7,7,9,9,10,10,11,11,12,12,13,13,14,14,15,15,16,16,17,17,18,18,19,19,20,20,21,21,22,22,24,24,25,25,26,26,27,27,28,28,30,30,32,32,33,33,37,37,38,38,39,39,41,41,42,42,44,44,45,45,46,46,47,47,48,48,49,49,51,51,52,52,53,53,54,54,55,55,62,62,63,63,66,66,68,68,69,69,70,70,72,72,73,73,74,74,76,76,77,77,82,82,85,85,86,86,88,88,89,89,90,90],"right_children":[2,4,6,8,10,12,14,16,-1,18,20,22,24,26,28,30,32,34,-1,38,40,42,44,-1,46,48,50,52,54,-1,56,-1,58,-1,-1,-1,-1,62,64,66,-1,68,70,-1,72,74,76,78,-1,82,-1,84,86,88,90,92,-1,-1,-1,-1,-1,-1,94,96,-1,-1,-1,-1,100,102,104,-1,-1,108,-1,-1,112,114,-1,-1,-1,-1,116,-1,-1,118,-1,-1,-1,-1,126,-1,-1,-1,-1,-1,-1,-1,-1,-1,-1,-1,-1,-1,-1,-1,-1,-1,-1,-1,-1,-1,-1,-1,-1,-1,-1,-1,-1,-1,-1,-1,-1,-1,-1,-1,-1],"split_conditions":[4.900218E1,3.803591E1,5E-1,8.229E1,5E-1,5E-1,5E-1,3.4006218E1,-3.7132642E-1,6.416E1,3.4291353E0,5E-1,5.65E1,6.55E1,7.100983E1,3.3472285E0,7.7816376E1,5E-1,-3.7424213E-1,3.3878188E0,3.9356544E0,5E-1,7.400284E1,-3.0860305E-1,5E-1,2.383581E2,3.6176438E0,3.252571E0,5E-1,-3.5904452E-1,3.4323716E0,-3.421931E-1,5E-1,-2.9380637E-1,3.1218717E-1,-3.7770814E-1,-1.1658649E-1,3.899859E1,9.765779E1,4.8155876E1,1.6630301E-1,7.099281E1,7.8006836E1,-3.987555E-1,7.4901535E1,8.7777756E1,3.0887022E0,3.4239209E0,2.8261527E-1,3.1411612E0,-1.5935661E-1,1.8936928E2,5E-1,7.2019905E1,3.4567914E0,3.3990197E0,-3.492075E-1,-1.9397534E-1,3.9143893E-1,-3.2335716E-1,-8.617153E-2,3.227983E-1,5E-1,7.7240005E1,-2.230914E-1,-3.672765E-1,-9.950362E-2,-4.0056038E-1,5E-1,5.699147E1,3.2772832E0,2.8141424E-1,-3.004721E-1,7.801005E1,3.369875E-1,3.2391304E-1,3.5380523E0,5.553016E1,-3.8248086E-1,3.0612633E-1,7.357306E-2,-6.1840948E-2,1.9510312E2,-2.4784991E-1,9.555718E-2,3.4391856E0,3.4381753E-1,-1.7414652E-2,3.4933805E-1,-2.184694E-1,3.5447168E0,-1.9939665E-1,3.2127148E-1,-2.750698E-1,1.576495E-1,7.0560224E-2,4.154274E-1,-1.4074421E-1,-9.606281E-3,-3.9735492E-2,1.954875E-1,-1.1198118E-1,-3.3002308E-1,3.451771E-1,-2.5570664E-1,-3.7339535E-1,-1.924659E-1,-3.0652034E-1,3.4528947E-1,3.4255674E-1,2.0388003E-1,-3.90622E-1,2.6473013E-1,1.4985028E-1,-2.9863092E-1,2.9490417E-1,1.4563093E-1,3.1662774E-1,1.054391E-1,3.4936804E-1,7.96321E-2,3.5304087E-1,1.8552709E-1,-4.8265364E-2,-2.6592407E-1,3.441418E-1,2.6643679E-2],"split_indices":[0,0,1,4,11,2,11,0,0,4,12,9,0,0,0,12,4,1,4,12,12,15,0,0,9,4,12,12,9,0,12,0,11,4,0,2147483647,2147483647,0,4,0,0,4,0,0,0,4,12,12,0,12,0,4,2,0,12,12,0,0,0,2147483647,2147483647,0,1,4,0,0,4,0,11,0,12,0,15,0,12,0,12,0,0,2147483647,2147483647,0,4,0,0,12,12,0,0,0,12,0,0,0,0,0,0,2147483647,2147483647,0,0,0,0,0,0,2147483647,2147483647,0,0,2147483647,2147483647,0,0,0,0,0,0,0,0,2147483647,2147483647,2147483647,2147483647,2147483647,2147483647,0,0],"split_type":[0,0,0,0,0,0,0,0,0,0,0,0,0,0,0,0,0,0,0,0,0,0,0,0,0,0,0,0,0,0,0,0,0,0,0,0,0,0,0,0,0,0,0,0,0,0,0,0,0,0,0,0,0,0,0,0,0,0,0,0,0,0,0,0,0,0,0,0,0,0,0,0,0,0,0,0,0,0,0,0,0,0,0,0,0,0,0,0,0,0,0,0,0,0,0,0,0,0,0,0,0,0,0,0,0,0,0,0,0,0,0,0,0,0,0,0,0,0,0,0,0,0,0,0,0,0,0],"sum_hessian":[1.3445234E3,4.296063E2,9.149171E2,2.84835E2,1.4477129E2,5.534753E2,3.6144183E2,1.0831583E2,1.7651917E2,6.300439E1,8.17669E1,3.9476215E2,1.5871318E2,9.339223E1,2.680496E2,9.300383E1,1.5311997E1,8.930011E0,5.407438E1,5.2892906E1,2.8873997E1,3.3527112E2,5.949101E1,3.6268015E0,1.5508636E2,2.0989742E1,7.240249E1,1.1428296E2,1.5376663E2,6.465049E1,2.835334E1,1.0676698E1,4.635299E0,5.0973206E0,3.8326902E0,5.289687E1,1.1775109E0,3.5758995E1,1.7133911E1,2.6770193E1,2.1038048E0,2.577245E2,7.754664E1,3.837564E1,2.1115366E1,1.3868817E2,1.6398201E1,1.447756E1,6.5121818E0,7.120875E1,1.1937397E0,3.3637335E0,1.1091923E2,1.3556642E2,1.8200218E1,9.047157E0,1.9306183E1,1.0844566E0,3.5508425E0,3.9743512E0,1.1229695E0,4.4209037E0,3.133809E1,1.5780721E1,1.3531896E0,2.416121E1,2.608984E0,1.5825481E1,2.41899E2,6.533368E1,1.2212959E1,2.1484728E0,1.8966894E1,1.7051514E1,1.2163666E2,4.003296E0,1.2394906E1,6.686081E0,7.7914796E0,5.4363317E0,1.07585E0,1.2003237E0,7.000842E1,1.7667314E0,1.5970021E0,7.2165474E1,3.8753754E1,1.0955604E0,1.3447086E2,3.3447633E0,1.4855455E1,5.2557383E0,3.7914193E0,2.8660225E1,2.6778646E0,2.3583643E0,1.3422357E1,1.400768E0,1.2082158E0,7.3802826E1,1.6809618E2,3.1009941E1,3.432374E1,7.9742937E0,4.2386656E0,9.855517E0,9.111376E0,3.5228803E0,1.3528634E1,1.152414E2,6.395254E0,7.3050413E0,5.0898647E0,2.875968E0,3.810113E0,5.8604713E1,1.1403712E1,4.3580162E1,2.858531E1,3.7640495E1,1.1132581E0,1.3036879E2,4.102063E0,1.1690077E0,2.1757555E0,1.365906E1,1.1963961E0],"tree_param":{"num_deleted":"18","num_feature":"17","num_nodes":"127","size_leaf_vector":"0"}},{"base_weights":[1.0757519E-2,-1.0755135E0,4.3342897E-1,-1.2325985E0,-6.940607E-1,1.7782513E-2,7.2547793E-1,-1.0768086E0,-1.3525317E0,1.1680334E0,-7.9274017E-1,-3.82145E-1,4.482345E-1,8.537966E-1,5.907306E-2,-1.2624029E0,-6.2593186E-1,-1.1126343E0,-4.9143603E-1,-6.817583E-1,3.6400148E-1,6.0393554E-1,-5.9321404E-1,5.402247E-1,1.0921468E0,-6.7992574E-1,4.3007025E-1,-7.249432E-2,-1.2728119E0,1.860124E-1,-1.3027798E0,-1.2993349E0,-2.53533E-1,3.3642608E-1,-9.884156E-1,7.840753E-1,-4.9272466E-1,6.5153164E-1,-1.3253399E0,5.271159E-1,-1.3129481E0,2.3759212E-1,1.1471568E0,1.1645153E0,5.8628196E-1,9.7501516E-1,-1.0658877E0,-1.1532215E0,8.040896E-1,3.1615484E-1,-1.0951717E0,-9.871907E-1,9.135154E-1,-1.3236444E0,-2.443492E-1,3.7349746E-1,-1.0554025E0,-8.5973287E-1,8.0194485E-1,-3.1470484E-1,-1.586278E0,-1.0349803E0,9.5468545E-1,-1.3357558E0,6.9648445E-1,2.2456117E-1,8.616871E-1,-8.16419E-1,1.2173792E0,-1.5171825E0,-6.368719E-1,5.1339024E-1,-5.4674715E-1,-9.1982764E-1,1.2286508E0,1.2832083E0,1.0246131E0,-7.669399E-1,8.512847E-1,1.3946501E0,-4.105979E-1,-1.5931697E0,9.814742E-1,-6.262274E-1,-1.4643428E0,9.564895E-1,-1.0051972E0,-1.4844356E-1,1.5632231E0,1.1234604E0,1.9411711E-1,6.432152E-1,-1.0675421E0,-1.2835462E0,1.1184157E-1,-1.3142788E0,6.15707E-1,-1.0902028E0,1.1196994E0,-1.0847067E0,2.931201E-1,-1.0417774E0,-1.67465E0,1.1283654E0,-5.3487366E-1,-2.870985E-1,-1.4384679E0,-1.2965599E0,1.1629986E0,-2.6849404E-1,9.062104E-1,9.9918246E-1,2.1365869E-1,-1.6127832E0,-5.102936E-1,2.4736379E-1,-1.2546723E0,-9.05526E-1,7.5179845E-1,-1.5221763E0,-2.0904078E-1,1.2820072E0,-8.842069E-1,3.7441906E-1,1.2892383E0,-1.0759364E0,1.059726E0,-1.0428469E0,-2.4054046E-1,9.51453E-1,-7.92701E-1,1.8360572E-1,1.7552614E0,-4.1085625E-1,-1.6420256E0,-1.1425562E0,6.575913E-2,-1.6187423E0,-4.1409528E-1,-1.2626393E-1,1.1131519E0],"categories":[],"categories_nodes":[],"categories_segments":[],"categories_sizes":[],"default_left":[true,true,true,true,true,true,true,true,false,false,true,true,true,true,true,false,true,true,true,true,true,true,true,true,true,true,true,true,false,true,true,false,true,true,true,true,true,true,false,true,true,true,true,true,true,true,true,true,true,true,false,false,true,true,true,true,true,true,true,true,true,false,true,true,true,true,true,false,false,true,true,true,true,false,true,true,true,true,true,true,false,true,false,true,true,true,false,false,false,true,true,false,false,false,false,false,false,false,false,false,false,true,true,false,false,true,true,false,false,false,false,false,false,true,true,false,false,false,false,false,false,false,false,true,true,false,false,true,true,false,false,false,false,true,true,false,false,true,true,false,false],"id":3,"left_children":[1,3,5,7,9,11,13,15,-1,-1,17,19,21,23,25,-1,27,29,31,33,35,37,39,41,43,45,47,49,-1,51,-1,-1,55,57,59,61,63,65,-1,67,69,71,73,75,77,79,81,83,85,87,-1,-1,-1,-1,-1,91,93,95,97,99,-1,-1,103,-1,107,109,111,-1,-1,-1,115,117,119,-1,121,-1,125,-1,129,131,-1,-1,-1,135,-1,139,-1,-1,-1,-1,-1,-1,-1,-1,-1,-1,-1,-1,-1,-1,-1,-1,-1,-1,-1,-1,-1,-1,-1,-1,-1,-1,-1,-1,-1,-1,-1,-1,-1,-1,-1,-1,-1,-1,-1,-1,-1,-1,-1,-1,-1,-1,-1,-1,-1,-1,-1,-1,-1,-1,-1],"loss_changes":[5.664804E2,1.985321E1,1.0780234E2,3.0933533E0,1.9870079E1,6.3445774E1,4.455478E1,8.483658E0,0E0,0E0,8.947582E0,4.2963566E1,2.9137817E1,3.2095703E1,2.3678104E1,0E0,1.218733E1,1.1844944E1,9.764453E0,4.300803E1,2.032231E1,1.5086845E1,1.9711832E1,3.4780483E1,8.37738E0,1.9496822E1,3.491897E1,8.11481E0,0E0,6.770671E0,5.8444977E-1,0E0,2.141751E1,1.872118E1,4.19124E1,1.2643435E1,1.9817501E1,1.3430733E1,0E0,1.0211993E1,1.0563126E0,2.8100353E1,1.1781975E1,2.2636414E0,1.24825945E1,4.053794E0,2.7375002E1,9.4874954E-1,1.3926893E1,8.887498E0,0E0,0E0,5.013919E-1,0E0,0E0,1.0093765E1,5.0992985E0,7.217039E0,1.5546995E1,2.4072565E1,9.2793274E-1,0E0,9.620869E0,8.1134796E-1,9.385361E0,1.7530235E1,8.821373E0,0E0,0E0,1.9024658E-1,3.1083198E0,3.3041916E1,1.0862315E1,0E0,8.04026E0,1.3447571E-1,8.801567E0,6.1014986E-1,5.374954E0,1.7839003E0,0E0,4.4562912E-1,0E0,2.2086713E0,3.6879635E-1,7.5838966E0,0E0,0E0,0E0,0E0,0E0,0E0,0E0,0E0,0E0,0E0,0E0,0E0,0E0,0E0,0E0,0E0,0E0,0E0,0E0,0E0,0E0,0E0,0E0,0E0,0E0,0E0,0E0,0E0,0E0,0E0,0E0,0E0,0E0,0E0,0E0,0E0,0E0,0E0,0E0,0E0,0E0,0E0,0E0,0E0,0E0,0E0,0E0,0E0,0E0,0E0,0E0,0E0,0E0,0E0,0E0],"parents":[2147483647,0,0,1,1,2,2,3,3,4,4,5,5,6,6,7,7,10,10,11,11,12,12,13,13,14,14,16,16,17,17,18,18,19,19,20,20,21,21,22,22,23,23,24,24,25,25,26,26,27,27,29,29,30,30,32,32,33,33,34,34,35,35,36,36,37,37,39,39,40,40,41,41,42,42,43,43,44,44,45,45,46,46,47,47,48,48,49,49,52,52,55,55,56,56,57,57,58,58,59,59,60,60,62,62,63,63,64,64,65,65,66,66,69,69,70,70,71,71,72,72,74,74,75,75,76,76,77,77,78,78,79,79,81,81,83,83,84,84,85,85],"right_children":[2,4,6,8,10,12,14,16,-1,-1,18,20,22,24,26,-1,28,30,32,34,36,38,40,42,44,46,48,50,-1,52,-1,-1,56,58,60,62,64,66,-1,68,70,72,74,76,78,80,82,84,86,88,-1,-1,-1,-1,-1,92,94,96,98,100,-1,-1,104,-1,108,110,112,-1,-1,-1,116,118,120,-1,122,-1,126,-1,130,132,-1,-1,-1,136,-1,140,-1,-1,-1,-1,-1,-1,-1,-1,-1,-1,-1,-1,-1,-1,-1,-1,-1,-1,-1,-1,-1,-1,-1,-1,-1,-1,-1,-1,-1,-1,-1,-1,-1,-1,-1,-1,-1,-1,-1,-1,-1,-1,-1,-1,-1,-1,-1,-1,-1,-1,-1,-1,-1,-1,-1],"split_conditions":[4.701371E1,3.8021828E1,5E-1,5E-1,3.899859E1,6.8023544E1,5E-1,1.6220953E1,-3.3813292E-1,2.9200834E-1,5E-1,1.59045E2,5E-1,6.7006744E1,1.0115744E2,-3.1560072E-1,8.2295E1,6.4575E1,2.5376205E1,6.800679E1,5E-1,8.199902E1,7.692999E1,5E-1,5E-1,2.3792877E1,5E-1,3.103217E1,-3.1820297E-1,2.89E1,-3.2569495E-1,-3.2483372E-1,3.0849998E1,5E-1,2.825E1,2.72E1,5E-1,5E-1,-3.3133498E-1,7.2508736E1,3.265E1,3.1891712E1,5.5146694E1,5E-1,2.7611835E1,7.64492E1,8.1E1,1.9806E2,5E-1,2.9935299E1,-2.7379292E-1,-2.4679768E-1,2.2837885E-1,-3.309111E-1,-6.10873E-2,9.7770004E1,1.416159E2,6.65E1,2.7905735E1,2.5603634E1,-3.965695E-1,-2.5874507E-1,5E-1,-3.3393896E-1,2.09225E2,5E-1,5E-1,-2.0410475E-1,3.043448E-1,-3.7929562E-1,3.475E1,2.673138E1,8.455E1,-2.2995691E-1,6.59695E1,3.2080206E-1,6.629123E1,-1.9173497E-1,3.469361E1,7.6370026E1,-1.0264947E-1,-3.9829242E-1,2.4536856E-1,1.25905E2,-3.660857E-1,2.7312256E1,-2.512993E-1,-3.711089E-2,3.9080578E-1,2.808651E-1,4.852928E-2,1.608038E-1,-2.6688552E-1,-3.2088655E-1,2.7960392E-2,-3.285697E-1,1.5392675E-1,-2.725507E-1,2.7992484E-1,-2.7117667E-1,7.328002E-2,-2.6044434E-1,-4.186625E-1,2.8209135E-1,-1.3371842E-1,-7.1774624E-2,-3.5961697E-1,-3.2413998E-1,2.9074964E-1,-6.712351E-2,2.265526E-1,2.4979562E-1,5.3414673E-2,-4.031958E-1,-1.275734E-1,6.1840948E-2,-3.1366807E-1,-2.263815E-1,1.8794961E-1,-3.8054407E-1,-5.2260194E-2,3.205018E-1,-2.2105172E-1,9.3604766E-2,3.2230958E-1,-2.689841E-1,2.649315E-1,-2.6071173E-1,-6.0135115E-2,2.3786324E-1,-1.9817525E-1,4.590143E-2,4.3881536E-1,-1.0271406E-1,-4.105064E-1,-2.8563905E-1,1.6439782E-2,-4.046856E-1,-1.0352382E-1,-3.1565983E-2,2.7828798E-1],"split_indices":[0,0,6,8,0,0,14,0,0,0,11,4,14,0,4,0,4,4,5,4,8,0,4,2,9,5,11,5,0,5,4,0,5,11,5,5,2,11,0,4,5,5,0,8,5,4,0,4,9,5,0,0,0,2147483647,2147483647,4,4,0,5,5,0,0,9,4,4,2,9,0,0,0,5,5,4,0,0,0,4,5,5,4,0,4,0,4,5,5,0,0,0,2147483647,2147483647,0,0,0,0,0,0,0,0,0,0,2147483647,2147483647,0,0,2147483647,2147483647,0,0,0,0,0,0,2147483647,2147483647,0,0,0,0,0,0,0,0,2147483647,2147483647,0,0,2147483647,2147483647,0,0,0,0,2147483647,2147483647,0,0,2147483647,2147483647,0,0],"split_type":[0,0,0,0,0,0,0,0,0,0,0,0,0,0,0,0,0,0,0,0,0,0,0,0,0,0,0,0,0,0,0,0,0,0,0,0,0,0,0,0,0,0,0,0,0,0,0,0,0,0,0,0,0,0,0,0,0,0,0,0,0,0,0,0,0,0,0,0,0,0,0,0,0,0,0,0,0,0,0,0,0,0,0,0,0,0,0,0,0,0,0,0,0,0,0,0,0,0,0,0,0,0,0,0,0,0,0,0,0,0,0,0,0,0,0,0,0,0,0,0,0,0,0,0,0,0,0,0,0,0,0,0,0,0,0,0,0,0,0,0,0],"sum_hessian":[1.2317819E3,3.4460306E2,8.8717883E2,2.42506E2,1.0209707E2,3.6655524E2,5.206236E2,1.0982479E2,1.326812E2,4.592846E0,9.750422E1,1.9007301E2,1.7648222E2,4.3632617E2,8.429739E1,7.652497E1,3.3299824E1,4.5987083E1,5.151714E1,1.356781E2,5.4394913E1,1.5389444E2,2.2587776E1,1.8984018E2,2.46486E2,2.789665E1,5.640075E1,1.8545397E1,1.4754427E1,5.8761525E0,4.011093E1,1.0704371E1,4.0812767E1,3.1382553E1,1.04295555E2,3.6555603E1,1.7839308E1,1.5083556E2,3.0588908E0,8.939803E0,1.3647973E1,1.276046E2,6.2235588E1,2.1449808E2,3.1987907E1,4.9870043E0,2.2909645E1,1.0379427E1,4.602132E1,1.3939E1,4.6063976E0,2.1124945E0,3.7636583E0,3.908979E1,1.0211416E0,2.3203083E1,1.7609684E1,8.554579E0,2.2827974E1,4.975487E1,5.454068E1,2.700145E0,3.3855457E1,1.0366944E1,7.472364E0,5.0435295E1,1.0040025E2,2.972105E0,5.967698E0,9.526142E0,4.121831E0,9.466343E1,3.2941166E1,1.9704587E0,6.026513E1,1.1162409E2,1.02873985E2,4.9282074E0,2.70597E1,3.822755E0,1.1642492E0,1.8394205E1,4.51544E0,4.9714026E0,5.4080243E0,4.2880733E1,3.1405873E0,1.0797377E1,3.1416235E0,2.4786398E0,1.2850184E0,2.0011248E1,3.1918368E0,1.4647181E1,2.9625027E0,6.6233273E0,1.9312518E0,2.9328194E0,1.9895155E1,2.1603128E1,2.8151741E1,9.401608E0,4.5139072E1,3.0537344E1,3.3181157E0,1.2633836E0,9.10356E0,1.0798353E0,6.392529E0,2.9617949E1,2.0817345E1,8.237951E1,1.8020746E1,8.150528E0,1.375615E0,1.9419676E0,2.1798632E0,1.3214924E1,8.14485E1,7.5696464E0,2.5371521E1,5.9164276E1,1.1008536E0,1.1516479E0,1.1047245E2,1.20402E0,1.0166997E2,2.5897312E0,2.3384762E0,2.5902697E1,1.1570028E0,1.2233887E0,2.5993664E0,1.1033235E0,1.7290882E1,2.474167E0,2.4972358E0,4.24296E0,1.165064E0,5.44466E0,3.7436073E1],"tree_param":{"num_deleted":"18","num_feature":"17","num_nodes":"141","size_leaf_vector":"0"}},{"base_weights":[7.818873E-3,-9.906759E-1,3.797346E-1,-1.172222E0,-7.1509194E-1,1.2784904E-1,8.200436E-1,-9.863485E-1,-1.2377878E0,-4.8878625E-1,-1.1797284E0,2.956844E-1,-4.147688E-1,8.772503E-1,-4.027379E-1,-1.2042106E0,-4.6627644E-1,-1.6836518E-1,-1.0032634E0,-1.2340263E0,3.243533E-1,5.0194055E-1,-4.4227728E-1,-7.2014016E-1,4.9963734E-1,9.7450894E-1,2.4128577E-1,-1.3611671E0,9.7437006E-1,3.5325253E-1,-1.1091533E0,-1.039329E0,2.7396724E-1,-1.2150435E0,-8.7920606E-2,7.3217666E-1,-4.335628E-1,-1.0656916E0,6.566752E-3,1.4290302E0,-8.1316864E-1,-9.0070206E-1,7.5426894E-1,1.1814617E0,5.926251E-1,-6.4809126E-1,4.7510278E-1,-1.4391514E0,-3.9175916E-1,6.846179E-1,-7.8082734E-1,-1.2965128E0,2.7227268E-1,-9.491961E-1,6.82865E-1,5.580773E-1,-9.614075E-1,-7.9197127E-1,8.102968E-1,-1.1166452E0,1.124464E-1,5.8096625E-2,-1.3984437E0,-1.0962273E0,4.419251E-1,-3.669937E-1,-1.1173545E0,-1.2166796E0,-2.1714732E-1,1.0992519E0,1.2474465E-2,1.2189447E0,2.0896848E-1,1.11796245E-1,8.2954764E-1,6.5349765E-2,-1.6267273E0,-7.4848664E-1,5.692357E-1,9.178589E-1,-2.4143113E-1,9.446897E-1,-6.47746E-1,-1.0279624E0,-1.8798035E-1,1.1452781E0,3.6896322E-2,8.1736153E-1,-1.862802E-1,-1.4442351E0,2.233599E-1,2.6095438E-1,9.688127E-1,-1.4064883E0,7.6395756E-1,1.3391215E0,-2.5658587E-1,7.897368E-1,-1.2254292E0,-5.733971E-1,-1.4402394E0,-1.2694473E0,-6.714054E-1,-1.2789924E0,6.109289E-1,-9.6820796E-1,2.0881139E-1,-1.1624267E0,9.774413E-2,1.3058026E0,4.033927E-1,-9.6582836E-1,7.159949E-1,4.6225405E-1,1.2238852E0,7.468039E-1,-8.366038E-2,-9.7514683E-1,4.644939E-1,-9.1715956E-1,8.777058E-1,-1.1167306E0,1.0902807E0,3.8533738E-1,1.139738E0],"categories":[],"categories_nodes":[],"categories_segments":[],"categories_sizes":[],"default_left":[true,true,true,true,true,true,true,true,false,true,true,true,true,true,true,false,true,true,true,false,false,true,true,true,true,true,true,true,false,true,false,true,true,false,true,true,true,true,true,false,true,true,true,true,true,true,true,true,true,true,false,false,true,true,true,true,false,true,true,true,true,true,true,true,true,true,true,true,true,true,true,true,true,true,true,true,false,false,true,false,false,false,false,true,true,false,false,true,true,false,false,false,false,false,false,false,false,false,false,true,true,true,true,false,false,false,false,false,false,false,false,false,false,true,true,true,true,false,false,false,false,false,false,false,false],"id":4,"left_children":[1,3,5,7,9,11,13,15,-1,17,19,21,23,25,27,-1,29,31,33,-1,-1,35,37,39,41,43,45,-1,-1,49,-1,51,53,-1,55,57,59,61,63,-1,65,-1,69,71,73,75,77,-1,-1,79,-1,-1,81,-1,85,-1,-1,89,91,93,95,97,-1,-1,103,105,107,-1,-1,109,111,-1,-1,117,119,121,-1,-1,123,-1,-1,-1,-1,-1,-1,-1,-1,-1,-1,-1,-1,-1,-1,-1,-1,-1,-1,-1,-1,-1,-1,-1,-1,-1,-1,-1,-1,-1,-1,-1,-1,-1,-1,-1,-1,-1,-1,-1,-1,-1,-1,-1,-1,-1,-1],"loss_changes":[4.1594116E2,1.4369995E1,9.0403656E1,9.9334717E-1,1.2386879E1,4.750596E1,2.1113388E1,5.364357E0,0E0,1.3779539E1,3.6402779E0,6.0795795E1,3.4797295E1,1.7320602E1,1.9737474E1,0E0,9.386651E0,2.083493E1,6.1490784E0,0E0,0E0,6.7410576E1,2.448064E1,1.9728508E1,1.1899123E1,1.8730011E1,8.413397E0,8.9538574E-2,0E0,3.639996E0,0E0,6.483738E0,1.8737072E1,0E0,4.566373E0,3.045015E1,2.330568E1,1.37743E1,2.5375963E1,0E0,1.1756889E1,8.7989664E-1,6.9389305E0,5.5206604E0,9.979279E0,6.0668726E0,4.0474095E0,0E0,0E0,1.7179723E0,0E0,0E0,2.966428E0,3.7515068E-1,8.228064E0,1.0667237E0,0E0,8.741156E0,2.0527756E1,1.6173733E1,1.6390854E1,9.725282E0,1.4979172E-1,2.486763E-1,1.1799547E1,1.3298558E1,3.0062332E0,0E0,0E0,2.136982E0,7.3234363E0,3.8146973E-3,1.1778712E0,1.2084252E1,5.774151E0,8.364368E0,0E0,0E0,2.6833553E0,0E0,0E0,0E0,0E0,0E0,0E0,0E0,0E0,0E0,0E0,0E0,0E0,0E0,0E0,0E0,0E0,0E0,0E0,0E0,0E0,0E0,0E0,0E0,0E0,0E0,0E0,0E0,0E0,0E0,0E0,0E0,0E0,0E0,0E0,0E0,0E0,0E0,0E0,0E0,0E0,0E0,0E0,0E0,0E0,0E0,0E0],"parents":[2147483647,0,0,1,1,2,2,3,3,4,4,5,5,6,6,7,7,9,9,10,10,11,11,12,12,13,13,14,14,16,16,17,17,18,18,21,21,22,22,23,23,24,24,25,25,26,26,27,27,29,29,31,31,32,32,34,34,35,35,36,36,37,37,38,38,40,40,41,41,42,42,43,43,44,44,45,45,46,46,49,49,52,52,53,53,54,54,55,55,57,57,58,58,59,59,60,60,61,61,62,62,63,63,64,64,65,65,66,66,69,69,70,70,71,71,72,72,73,73,74,74,75,75,78,78],"right_children":[2,4,6,8,10,12,14,16,-1,18,20,22,24,26,28,-1,30,32,34,-1,-1,36,38,40,42,44,46,-1,-1,50,-1,52,54,-1,56,58,60,62,64,-1,66,-1,70,72,74,76,78,-1,-1,80,-1,-1,82,-1,86,-1,-1,90,92,94,96,98,-1,-1,104,106,108,-1,-1,110,112,-1,-1,118,120,122,-1,-1,124,-1,-1,-1,-1,-1,-1,-1,-1,-1,-1,-1,-1,-1,-1,-1,-1,-1,-1,-1,-1,-1,-1,-1,-1,-1,-1,-1,-1,-1,-1,-1,-1,-1,-1,-1,-1,-1,-1,-1,-1,-1,-1,-1,-1,-1,-1],"split_conditions":[4.702547E1,3.4006218E1,5E-1,4.3502235E0,4.58318E0,5E-1,5E-1,2.8481762E1,-3.0944696E-1,3.0849998E1,5.14E1,5E-1,7.8006836E1,5E-1,5.3400707E0,-3.0105266E-1,3.0999994E1,4.357091E0,5E-1,-3.0850658E-1,8.108833E-2,5E-1,4.6166697E0,4.795053E1,4.3968105E0,5E-1,6.315737E1,-3.4029177E-1,2.4359252E-1,5E-1,-2.7728832E-1,2.9349998E1,5E-1,-3.037609E-1,4.193312E0,5.1011036E1,4.6260996E0,2.4E1,5E-1,3.5725754E-1,5.589863E1,-2.2517551E-1,4.662731E0,3.7031273E1,6.903334E1,4.726921E0,4.2616935E0,-3.5978785E-1,-9.793979E-2,5E-1,-1.9520684E-1,-3.241282E-1,2.9562073E1,-2.3729903E-1,4.428006E0,1.3951932E-1,-2.4035187E-1,3.8643044E1,4.444309E0,8.000355E1,4.6562843E0,5E-1,-3.4961092E-1,-2.7405682E-1,5.55E1,5.225772E1,5.460541E0,-3.041699E-1,-5.428683E-2,2.7031528E1,5.41669E0,3.0473617E-1,5.224212E-2,5E-1,4.0864973E0,4.6383333E0,-4.0668184E-1,-1.8712166E-1,5.479129E0,2.2946472E-1,-6.0357783E-2,2.3617242E-1,-1.619365E-1,-2.569906E-1,-4.699509E-2,2.8631952E-1,9.2240805E-3,2.0434038E-1,-4.657005E-2,-3.6105877E-1,5.5839974E-2,6.5238595E-2,2.4220318E-1,-3.5162207E-1,1.9098939E-1,3.3478037E-1,-6.414647E-2,1.974342E-1,-3.063573E-1,-1.4334927E-1,-3.6005986E-1,-3.1736183E-1,-1.6785134E-1,-3.197481E-1,1.5273222E-1,-2.4205199E-1,5.2202847E-2,-2.9060668E-1,2.4436032E-2,3.2645065E-1,1.00848176E-1,-2.4145709E-1,1.7899872E-1,1.1556351E-1,3.059713E-1,1.8670097E-1,-2.0915095E-2,-2.4378671E-1,1.16123475E-1,-2.2928989E-1,2.1942645E-1,-2.7918264E-1,2.7257016E-1,9.6334346E-2,2.849345E-1],"split_indices":[0,0,1,13,13,15,16,5,0,5,5,14,0,14,13,0,5,13,1,0,0,16,13,0,13,15,0,5,0,15,0,5,11,0,13,0,13,5,11,0,0,13,13,5,0,13,13,2147483647,2147483647,16,0,0,5,5,13,5,0,5,13,0,13,11,13,5,0,0,13,2147483647,2147483647,5,13,5,0,11,13,13,0,0,13,0,0,0,0,2147483647,2147483647,0,0,2147483647,2147483647,0,0,0,0,0,0,0,0,0,0,2147483647,2147483647,2147483647,2147483647,0,0,0,0,0,0,0,0,0,0,2147483647,2147483647,2147483647,2147483647,0,0,0,0,0,0,0,0],"split_type":[0,0,0,0,0,0,0,0,0,0,0,0,0,0,0,0,0,0,0,0,0,0,0,0,0,0,0,0,0,0,0,0,0,0,0,0,0,0,0,0,0,0,0,0,0,0,0,0,0,0,0,0,0,0,0,0,0,0,0,0,0,0,0,0,0,0,0,0,0,0,0,0,0,0,0,0,0,0,0,0,0,0,0,0,0,0,0,0,0,0,0,0,0,0,0,0,0,0,0,0,0,0,0,0,0,0,0,0,0,0,0,0,0,0,0,0,0,0,0,0,0,0,0,0,0],"sum_hessian":[1.1180476E3,3.0297543E2,8.1507214E2,1.8068938E2,1.2228607E2,5.1929297E2,2.957792E2,5.1300484E1,1.2938889E2,8.361335E1,3.8672718E1,3.969643E2,1.2232866E2,2.8282986E2,1.294935E1,3.5227818E1,1.6072664E1,5.2341713E1,3.1271643E1,3.749855E1,1.174165E0,3.105009E2,8.646342E1,9.186294E1,3.0465721E1,2.4485207E2,3.797778E1,7.64218E0,5.307171E0,7.263626E0,8.809039E0,1.7174677E1,3.5167034E1,2.5129974E1,6.141667E0,2.493507E2,6.11502E1,3.5618042E1,5.0845375E1,3.215536E0,8.86474E1,4.2970324E0,2.616869E1,1.5743835E2,8.741371E1,7.5370564E0,3.0440723E1,6.624687E0,1.0174928E0,5.927887E0,1.3357389E0,1.43687105E1,2.8059669E0,8.479721E0,2.6687313E1,3.7381587E0,2.4035082E0,1.171181E1,2.3763889E2,2.6700968E1,3.4449234E1,8.325643E0,2.72924E1,1.3961614E1,3.688376E1,3.6830902E1,5.18165E1,2.405257E0,1.8917755E0,1.7532873E1,8.635816E0,1.5135136E2,6.086985E0,2.9340239E1,5.8073475E1,4.898903E0,2.6381533E0,1.6779864E0,2.8762737E1,4.742303E0,1.1855843E0,1.6056353E0,1.2003316E0,7.3670034E0,1.112718E0,1.5102973E1,1.158434E1,2.6996908E0,1.038468E0,6.873648E0,4.838162E0,5.3808815E1,1.8383006E2,2.3353739E1,3.3472273E0,7.358987E0,2.7090246E1,5.547913E0,2.7777295E0,2.0256276E0,2.5266771E1,8.50538E0,5.456234E0,2.7109635E0,3.41728E1,1.7684515E1,1.9146385E1,5.0004993E1,1.8115096E0,1.2843906E1,4.6889668E0,3.456466E0,5.17935E0,1.5951781E0,1.497562E2,1.5979645E0,4.4890203E0,6.755702E0,2.2584536E1,1.0740144E0,5.6999462E1,2.2334447E0,2.6654584E0,2.3018337E1,5.7444E0],"tree_param":{"num_deleted":"16","num_feature":"17","num_nodes":"125","size_leaf_vector":"0"}},{"base_weights":[-3.2154735E-2,-2.8678223E-1,6.3146496E-1,-4.8986566E-1,7.4418044E-1,6.9378775E-1,-3.6578655E-1,-9.5657206E-1,-3.830202E-1,8.400365E-1,2.0175171E-1,8.7275326E-1,3.387369E-1,-1.0600402E0,8.2172453E-1,-1.1495048E0,-7.7828425E-1,-2.2498964E-1,-7.6411986E-1,-5.391467E-1,8.625182E-1,-1.0147979E0,4.643831E-1,9.821647E-1,2.3576546E-1,-3.5924807E-2,5.585553E-1,-3.230717E-1,-1.2444586E0,-4.1026615E-2,9.851378E-1,2.0056288E-1,-8.2156676E-1,-7.284523E-2,-9.280767E-1,-5.981576E-1,-1.0642534E0,5.5174994E-1,9.862241E-1,9.905909E-1,-9.817801E-3,-1.16843775E-1,9.951726E-1,-2.8259164E-1,8.575329E-1,-6.9757843E-1,5.517973E-1,3.5911566E-1,9.467044E-1,-5.2874976E-1,-1.2145774E-2,-9.574024E-2,3.6753193E-1,-1.1768243E0,-7.040298E-1,-5.874783E-1,1.9157304E-1,-5.571525E-1,-1.2924547E0,-7.60012E-2,-7.5873625E-1,-1.1108962E0,-5.825024E-1,6.502154E-1,-9.6386135E-1,-1.5425253E-1,1.0054339E0,-1.2211103E0,8.530333E-1,1.0876421E0,8.888046E-1,-4.5562778E-2,-9.677597E-1,-2.1200393E-1,9.948991E-1,2.6969054E-1,-1.3573279E0,-5.299211E-1,8.9197654E-1,7.366292E-1,-5.588315E-1,1.0688769E0,5.59259E-1,1.2775455E0,-8.3666706E-1,7.941942E-1,-7.4446726E-1,-5.858452E-1,3.8182813E-1,-1.066876E0,-6.323143E-2,-1.0329242E0,1.0087823E0,-1.1700132E0,-4.5692408E-1,2.4417506E-1,-8.320127E-1,3.5476053E-1,1.1253477E0,1.0610547E0,5.172757E-1,-6.866387E-2,1.0437001E0,3.3018804E-1,9.588762E-1,1.5367074E-1,-1.0064278E0,-3.242441E-1,-1.1407591E0,1.0685788E0,1.4709537E-1,-9.096678E-1,9.8428315E-1,7.526137E-3,-1.5226182E0,1.1467166E-1,-1.5217952E0,1.0171096E0,-3.6512038E-1,-3.9492825E-1,8.0055916E-1,-1.0441055E0,6.512672E-1,1.1252968E0,2.4347952E-1,-6.849355E-1,1.0797092E0],"categories":[],"categories_nodes":[],"categories_segments":[],"categories_sizes":[],"default_left":[true,true,true,true,true,true,true,true,true,true,true,true,true,true,true,false,true,true,true,false,true,false,true,true,true,true,true,true,true,true,true,true,true,true,true,true,true,true,true,false,true,false,true,true,true,true,true,true,true,true,true,true,true,false,true,true,true,true,false,true,true,false,true,true,false,false,true,false,true,false,true,true,true,false,true,true,true,true,true,true,true,true,true,false,false,false,false,false,false,false,false,false,false,false,false,false,false,false,false,true,true,true,true,false,false,false,false,true,true,true,true,false,false,false,false,false,false,false,false,false,false,false,false,true,true,false,false],"id":5,"left_children":[1,3,5,7,9,11,13,15,17,19,21,23,25,-1,-1,-1,31,33,35,-1,37,-1,39,41,43,45,47,-1,-1,-1,-1,-1,53,55,57,59,61,63,65,-1,67,-1,69,71,73,75,77,79,81,-1,-1,-1,-1,-1,83,85,87,89,-1,91,93,-1,95,97,-1,-1,-1,-1,-1,-1,103,105,-1,-1,-1,111,113,115,117,119,121,-1,125,-1,-1,-1,-1,-1,-1,-1,-1,-1,-1,-1,-1,-1,-1,-1,-1,-1,-1,-1,-1,-1,-1,-1,-1,-1,-1,-1,-1,-1,-1,-1,-1,-1,-1,-1,-1,-1,-1,-1,-1,-1,-1,-1,-1],"loss_changes":[1.6810915E2,1.5088356E2,1.740078E1,2.9612885E1,6.002632E0,1.6225769E1,1.4789397E1,2.9347916E0,2.939119E1,3.583107E0,6.587531E0,1.1772263E1,7.3310328E0,1.1052608E0,9.979634E-1,0E0,2.7473373E0,3.720166E1,6.5096893E0,0E0,3.2746582E0,0E0,4.109524E0,2.2131042E0,8.803622E0,1.3514707E1,3.995655E0,2.2190878E-1,0E0,0E0,0E0,2.0265646E-1,1.6172028E0,3.923648E1,7.645523E0,7.8799095E0,4.7194672E-1,5.186301E0,1.6838837E0,0E0,1.1109047E1,0E0,4.6011353E-1,2.4307015E0,2.0216684E0,1.0783756E1,7.2579637E0,1.3790855E1,2.7313042E-1,0E0,0E0,0E0,0E0,0E0,1.3290504E1,2.1811287E1,2.84268E1,8.09724E0,0E0,2.5308533E1,8.43866E0,0E0,1.5435691E0,3.7119837E0,0E0,0E0,1.3180618E0,0E0,1.1636934E0,0E0,2.5381584E0,2.5229533E0,6.0651064E-2,0E0,5.3604794E-1,7.1771793E0,2.2382965E0,3.396093E0,2.6366396E0,2.3264103E0,7.62078E0,3.263111E-1,4.9538627E0,0E0,0E0,0E0,0E0,0E0,0E0,0E0,0E0,0E0,0E0,0E0,0E0,0E0,0E0,0E0,0E0,0E0,0E0,0E0,0E0,0E0,0E0,0E0,0E0,0E0,0E0,0E0,0E0,0E0,0E0,0E0,0E0,0E0,0E0,0E0,0E0,0E0,0E0,0E0,0E0,0E0,0E0,0E0,0E0],"parents":[2147483647,0,0,1,1,2,2,3,3,4,4,5,5,6,6,7,7,8,8,9,9,10,10,11,11,12,12,13,13,14,14,16,16,17,17,18,18,20,20,22,22,23,23,24,24,25,25,26,26,27,27,31,31,32,32,33,33,34,34,35,35,36,36,37,37,38,38,40,40,42,42,43,43,44,44,45,45,46,46,47,47,48,48,54,54,55,55,56,56,57,57,59,59,60,60,62,62,63,63,66,66,68,68,70,70,71,71,72,72,74,74,75,75,76,76,77,77,78,78,79,79,80,80,81,81,82,82],"right_children":[2,4,6,8,10,12,14,16,18,20,22,24,26,-1,-1,-1,32,34,36,-1,38,-1,40,42,44,46,48,-1,-1,-1,-1,-1,54,56,58,60,62,64,66,-1,68,-1,70,72,74,76,78,80,82,-1,-1,-1,-1,-1,84,86,88,90,-1,92,94,-1,96,98,-1,-1,-1,-1,-1,-1,104,106,-1,-1,-1,112,114,116,118,120,122,-1,126,-1,-1,-1,-1,-1,-1,-1,-1,-1,-1,-1,-1,-1,-1,-1,-1,-1,-1,-1,-1,-1,-1,-1,-1,-1,-1,-1,-1,-1,-1,-1,-1,-1,-1,-1,-1,-1,-1,-1,-1,-1,-1,-1,-1],"split_conditions":[5E-1,5E-1,5E-1,2.3411215E1,5E-1,5E-1,5.3400426E0,2.0414455E1,5E-1,4.2014284E0,4.550782E0,3.5360317E0,5E-1,-2.6501006E-1,2.0543113E-1,-2.873762E-1,3.0250292E0,5E-1,4.5716643E0,-1.3478668E-1,5E-1,-2.5369948E-1,4.6685967E0,2.0838165E1,5E-1,5.1964374E0,5.2804813E0,-8.076792E-2,-3.1111464E-1,-1.0256654E-2,2.4628446E-1,5.014072E-2,4.3355055E0,5E-1,5E-1,2.645E1,5.411378E0,3.6945595E1,2.2540169E1,2.4764772E-1,5.361208E0,-2.9210944E-2,4.5431356E0,4.2204697E1,5E-1,4.2905846E0,3.2168888E1,4.4850197E0,3.0022133E1,-1.3218744E-1,-3.0364436E-3,-2.393506E-2,9.188298E-2,-2.9420608E-1,4.3384647E0,2.395E1,4.4079967E0,4.6257563E0,-3.2311368E-1,4.5036726E0,5E-1,-2.7772406E-1,5.435115E0,3.4559044E1,-2.4096534E-1,-3.8563132E-2,2.5135848E-1,-3.052776E-1,2.1325833E-1,2.7191052E-1,4.7547035E0,5.335576E0,-2.4193993E-1,-5.3000983E-2,2.4872477E-1,4.2644186E0,2.435E1,5.3936396E0,3.7097775E1,4.092518E0,5E-1,2.6721922E-1,4.47E1,3.1938636E-1,-2.0916677E-1,1.9854856E-1,-1.8611681E-1,-1.464613E-1,9.545703E-2,-2.66719E-1,-1.5807858E-2,-2.5823104E-1,2.5219557E-1,-2.925033E-1,-1.1423102E-1,6.1043765E-2,-2.0800318E-1,8.869013E-2,2.8133693E-1,2.6526368E-1,1.2931892E-1,-1.7165968E-2,2.6092502E-1,8.254701E-2,2.3971905E-1,3.8417686E-2,-2.5160694E-1,-8.106103E-2,-2.8518978E-1,2.671447E-1,3.677384E-2,-2.2741695E-1,2.4607079E-1,1.8815342E-3,-3.8065454E-1,2.8667916E-2,-3.804488E-1,2.542774E-1,-9.1280095E-2,-9.873206E-2,2.0013979E-1,-2.6102638E-1,1.628168E-1,2.813242E-1,6.086988E-2,-1.7123388E-1,2.699273E-1],"split_indices":[1,2,16,5,15,15,13,5,15,13,13,12,11,13,2,0,12,16,13,0,11,0,13,5,2,13,13,2147483647,2147483647,2147483647,2147483647,13,13,11,11,5,13,5,5,0,13,0,13,5,11,13,5,13,5,2147483647,2147483647,2147483647,2147483647,0,13,5,13,13,0,13,11,0,13,5,0,0,16,0,5,0,13,13,5,0,5,13,5,13,5,13,2,13,5,0,0,0,0,0,0,0,0,0,0,0,0,0,0,0,0,2147483647,2147483647,2147483647,2147483647,0,0,0,0,2147483647,2147483647,2147483647,2147483647,0,0,0,0,0,0,0,0,0,0,0,0,2147483647,2147483647,0,0],"split_type":[0,0,0,0,0,0,0,0,0,0,0,0,0,0,0,0,0,0,0,0,0,0,0,0,0,0,0,0,0,0,0,0,0,0,0,0,0,0,0,0,0,0,0,0,0,0,0,0,0,0,0,0,0,0,0,0,0,0,0,0,0,0,0,0,0,0,0,0,0,0,0,0,0,0,0,0,0,0,0,0,0,0,0,0,0,0,0,0,0,0,0,0,0,0,0,0,0,0,0,0,0,0,0,0,0,0,0,0,0,0,0,0,0,0,0,0,0,0,0,0,0,0,0,0,0,0,0],"sum_hessian":[9.9279926E2,7.1790906E2,2.7489023E2,6.002033E2,1.17705765E2,2.5900793E2,1.5882292E1,1.10328766E2,4.8987454E2,9.956274E1,1.8143028E1,1.7123685E2,8.777107E1,1.0090458E1,5.791834E0,5.037184E1,5.9956924E1,3.4740607E2,1.4246848E2,1.2283057E0,9.833443E1,2.712827E0,1.5430201E1,1.4567354E2,2.556331E1,3.276408E1,5.5006996E1,2.5704234E0,7.5200343E0,1.0415963E0,4.7502375E0,2.385025E0,5.75719E1,2.865103E2,6.0895744E1,9.366714E1,4.8801334E1,2.9552984E1,6.878145E1,6.7978473E0,8.632354E0,1.6106639E0,1.4406287E2,1.4238454E1,1.1324857E1,1.5324707E1,1.7439373E1,3.7608242E1,1.7398752E1,1.1254025E0,1.445021E0,1.0133442E0,1.3716809E0,1.20719185E1,4.549998E1,9.6829956E1,1.8968036E2,3.1430075E1,2.946567E1,2.2376945E1,7.129019E1,4.3302826E1,5.498509E0,2.8286283E1,1.2666999E0,1.0228952E0,6.775855E1,3.418363E0,5.21399E0,7.213131E1,7.1931564E1,1.1371177E1,2.8672764E0,1.2271197E0,1.0097737E1,6.453846E0,8.870861E0,4.0388074E0,1.3400565E1,2.6788692E1,1.08195505E1,1.1890547E1,5.5082054E0,2.312958E0,4.3187023E1,9.465389E0,8.736456E1,3.6884415E1,1.5279594E2,1.48967285E1,1.6533346E1,1.1914543E1,1.0462402E1,2.8955774E1,4.233442E1,1.2797674E0,4.2187414E0,1.8517855E1,9.76843E0,5.977428E1,7.98427E0,1.0033927E0,4.2105975E0,8.653916E0,6.327765E1,1.0114107E1,1.2570704E0,1.2164879E0,1.6507885E0,9.050758E0,1.0469792E0,2.3320537E0,4.1217923E0,1.0613577E0,7.809503E0,2.9839838E0,1.0548236E0,1.2361037E1,1.0395277E0,1.1556807E0,2.5633013E1,7.820532E0,2.9990182E0,1.078968E1,1.1008666E0,1.5313346E0,3.976871E0],"tree_param":{"num_deleted":"18","num_feature":"17","num_nodes":"127","size_leaf_vector":"0"}},{"base_weights":[-6.610438E-3,-2.9983E-1,2.5170258E-1,3.349215E-2,-6.614011E-1,-1.06713556E-1,4.362496E-1,3.0885664E-1,-6.798804E-1,-7.895303E-1,2.390441E-1,-7.870804E-1,-1.1502289E-2,5.178133E-1,-4.5883298E-1,3.819769E-1,-1.015166E0,-4.8753726E-1,-1.0140404E0,-1.9493231E-1,-1.0086421E0,3.6349818E-1,-1.0922023E0,-4.486019E-1,-1.1164118E0,6.3375615E-2,-6.2788266E-1,6.1162305E-1,6.350484E-2,-9.805241E-1,7.2010255E-1,-4.47124E-2,5.710241E-1,-1.6130438E-1,-1.1060051E0,-6.7709476E-1,1.4853382E-1,-1.0661949E0,-1.8071093E-1,-9.662278E-1,1.5509775E-1,-8.5002434E-1,-1.3822435E0,-3.886475E-2,1.014646E0,-8.1450844E-1,-2.0033059E-1,-2.6171225E-1,2.4093303E-1,2.4254136E-1,-1.1421041E0,4.7584087E-1,8.708054E-1,-1.2592342E0,4.5268962E-1,-4.939542E-1,-1.193846E0,8.887998E-1,-2.5710964E-1,3.078814E-1,-3.3855674E-1,6.549738E-1,-2.966319E-1,-1.0434275E0,-4.9787393E-1,4.4379777E-1,-4.0063876E-1,-1.0528616E0,-1.2784715E-1,2.9690287E-1,-9.197922E-1,-9.788754E-1,2.3404725E-1,6.231065E-1,-4.0069628E-1,4.4915572E-1,-3.7247562E-1,3.0231458E-1,-7.313253E-1,8.243426E-1,-5.6885947E-2,-6.6567415E-1,8.843223E-1,5.107606E-1,-1.1841315E0,1.0019948E0,6.905748E-1,7.8397846E-1,-3.5255992E-1,-1.1020452E0,2.5811216E-1,1.4624675E-1,9.803358E-1,-5.59915E-1,4.2383814E-1,-8.34009E-1,6.976382E-1,-1.3144183E0,6.3072616E-1,-1.1171758E0,-2.9408288E-1,6.031021E-1,-6.1450726E-1,5.2770114E-1,-1.0845301E-2,-6.7452043E-1,1.9674382E-1,-5.336182E-1,-1.1566244E0,4.3059883E-1,-8.853238E-1,-7.781353E-1,-1.165517E0,-9.7172314E-1,5.408152E-1,7.8238505E-1,3.1223482E-1,-8.820077E-1,-1.4613338E-1,-4.7195286E-2,-4.9187946E-1,3.8993463E-1,-7.073485E-1,-8.736109E-1,-8.0170766E-2,5.8739893E-2,1.0243162E0,3.6542565E-1,-3.588814E-1,5.6567043E-1,-1.0031522E-1,7.145926E-2,1.0218433E0,1.0777725E-1,8.542963E-1,8.775575E-1,-4.27618E-1,-1.9759178E0,3.5977206E-1,7.439315E-1,-4.2144188E-1],"categories":[],"categories_nodes":[],"categories_segments":[],"categories_sizes":[],"default_left":[true,true,true,true,true,true,true,true,true,true,true,true,true,true,true,true,true,true,true,true,true,true,false,true,false,true,true,true,true,true,true,true,true,true,true,true,true,true,true,true,true,true,false,true,false,true,true,true,true,true,false,true,true,false,true,true,false,false,false,true,true,true,true,true,true,true,true,true,true,true,false,true,true,true,true,true,true,true,true,true,true,false,false,true,false,true,true,true,true,false,true,false,false,false,false,false,false,false,false,true,true,false,false,true,true,true,true,true,true,false,false,false,false,false,false,true,true,true,true,true,true,false,false,false,false,false,false,false,false,false,false,true,true,false,false,false,false,false,false,false,false],"id":6,"left_children":[1,3,5,7,9,11,13,15,17,19,21,23,25,27,29,31,-1,35,-1,39,41,43,-1,-1,-1,47,49,51,53,55,57,59,61,-1,-1,63,65,-1,-1,-1,69,71,-1,73,-1,-1,-1,77,79,81,-1,83,85,-1,87,89,-1,-1,-1,91,93,95,97,-1,101,-1,-1,-1,-1,109,-1,111,113,-1,-1,-1,-1,121,123,125,127,-1,-1,129,-1,-1,133,135,137,-1,139,-1,-1,-1,-1,-1,-1,-1,-1,-1,-1,-1,-1,-1,-1,-1,-1,-1,-1,-1,-1,-1,-1,-1,-1,-1,-1,-1,-1,-1,-1,-1,-1,-1,-1,-1,-1,-1,-1,-1,-1,-1,-1,-1,-1,-1,-1,-1,-1,-1,-1],"loss_changes":[6.8657936E1,5.1187275E1,3.192377E1,4.3789597E1,2.3688858E1,1.0653938E1,2.347734E1,1.5950636E1,3.4968548E0,2.3065086E1,4.7280145E0,1.7500725E0,6.751132E0,1.2414749E1,1.7382797E1,1.2372473E1,4.9535084E-1,5.084792E0,7.530441E-1,1.346451E1,6.542404E0,6.4993305E0,0E0,8.9332247E-1,0E0,7.5998464E0,7.368237E0,8.10511E0,2.6889874E1,1.4052982E0,1.6947918E0,5.069376E0,7.9256897E0,0E0,0E0,1.5832272E0,1.8497376E0,0E0,0E0,9.9360466E-1,5.5751214E0,1.33613205E1,0E0,4.130542E0,0E0,0E0,1.0902328E0,1.2565037E1,1.4810125E1,4.498923E0,0E0,9.940994E0,1.247345E0,0E0,1.101116E1,3.7436557E0,0E0,0E0,0E0,2.281257E0,4.7289534E0,6.749691E0,1.0316751E1,2.024622E-1,3.3777843E0,2.7961636E-1,8.0856854E-1,1.3387775E-1,0E0,5.357929E0,0E0,2.2484818E0,4.5182505E0,5.8629513E-2,1.2292724E0,0E0,2.5145787E-1,2.2115297E0,2.313138E0,4.346096E0,7.424655E0,0E0,0E0,5.373192E0,0E0,7.627373E-1,3.5117245E0,3.6429272E0,1.50721245E1,0E0,1.6974401E0,0E0,0E0,0E0,0E0,0E0,0E0,0E0,0E0,0E0,0E0,0E0,0E0,0E0,0E0,0E0,0E0,0E0,0E0,0E0,0E0,0E0,0E0,0E0,0E0,0E0,0E0,0E0,0E0,0E0,0E0,0E0,0E0,0E0,0E0,0E0,0E0,0E0,0E0,0E0,0E0,0E0,0E0,0E0,0E0,0E0,0E0,0E0,0E0,0E0,0E0],"parents":[2147483647,0,0,1,1,2,2,3,3,4,4,5,5,6,6,7,7,8,8,9,9,10,10,11,11,12,12,13,13,14,14,15,15,16,16,17,17,18,18,19,19,20,20,21,21,23,23,25,25,26,26,27,27,28,28,29,29,30,30,31,31,32,32,35,35,36,36,39,39,40,40,41,41,43,43,46,46,47,47,48,48,49,49,51,51,52,52,54,54,55,55,59,59,60,60,61,61,62,62,63,63,64,64,65,65,66,66,67,67,69,69,71,71,72,72,73,73,74,74,76,76,77,77,78,78,79,79,80,80,83,83,85,85,86,86,87,87,88,88,90,90],"right_children":[2,4,6,8,10,12,14,16,18,20,22,24,26,28,30,32,-1,36,-1,40,42,44,-1,-1,-1,48,50,52,54,56,58,60,62,-1,-1,64,66,-1,-1,-1,70,72,-1,74,-1,-1,-1,78,80,82,-1,84,86,-1,88,90,-1,-1,-1,92,94,96,98,-1,102,-1,-1,-1,-1,110,-1,112,114,-1,-1,-1,-1,122,124,126,128,-1,-1,130,-1,-1,134,136,138,-1,140,-1,-1,-1,-1,-1,-1,-1,-1,-1,-1,-1,-1,-1,-1,-1,-1,-1,-1,-1,-1,-1,-1,-1,-1,-1,-1,-1,-1,-1,-1,-1,-1,-1,-1,-1,-1,-1,-1,-1,-1,-1,-1,-1,-1,-1,-1,-1,-1,-1,-1],"split_conditions":[5E-1,5E-1,5E-1,5E-1,2.0372E2,7.261542E1,5E-1,5E-1,9.7785E1,7.494E1,2.35639E2,6.416E1,5E-1,5E-1,1.88965E2,5E-1,-2.537915E-1,8.8875E1,-2.535101E-1,5E-1,1.07275E2,2.31435E2,-2.7305058E-1,-1.12150475E-1,-2.7910295E-1,9.590297E1,9.254835E1,1.2982901E2,1.0005244E2,7.3115E1,2.1207217E2,7.88236E1,5E-1,-4.0326096E-2,-2.7650127E-1,7.092553E1,9.11E1,-2.6654872E-1,-4.517773E-2,-2.4155696E-1,5E-1,1.0442E2,-3.4556088E-1,2.07495E2,2.536615E-1,-2.0362711E-1,-5.0082646E-2,8.00629E1,1.05165E2,9.073616E1,-2.8552604E-1,1.1832262E2,5E-1,-3.1480855E-1,2.01565E2,6.802127E1,-2.984615E-1,2.2219995E-1,-6.427741E-2,7.854182E1,1.6046158E2,6.3955E1,2.052013E2,-2.6085687E-1,7.157931E1,1.1094944E-1,-1.0015969E-1,-2.632154E-1,-3.1961787E-2,5E-1,-2.2994804E-1,5E-1,5E-1,1.5577662E-1,-1.0017407E-1,1.1228893E-1,-9.3118906E-2,5E-1,9.3805E1,5E-1,5E-1,-1.6641854E-1,2.2108057E-1,5E-1,-2.9603288E-1,2.504987E-1,1.8191272E2,5E-1,2.23755E2,-2.755113E-1,7.003714E1,3.6561687E-2,2.4508394E-1,-1.3997875E-1,1.05959535E-1,-2.0850225E-1,1.7440955E-1,-3.2860458E-1,1.5768154E-1,-2.7929395E-1,-7.352072E-2,1.5077552E-1,-1.5362681E-1,1.3192528E-1,-2.7113252E-3,-1.6863011E-1,4.9185954E-2,-1.3340455E-1,-2.891561E-1,1.0764971E-1,-2.2133096E-1,-1.9453382E-1,-2.9137924E-1,-2.4293078E-1,1.352038E-1,1.9559626E-1,7.8058705E-2,-2.2050193E-1,-3.6533345E-2,-1.1798821E-2,-1.22969866E-1,9.748366E-2,-1.7683713E-1,-2.1840273E-1,-2.0042691E-2,1.4684973E-2,2.5607905E-1,9.135641E-2,-8.972035E-2,1.4141761E-1,-2.5078805E-2,1.7864816E-2,2.5546083E-1,2.6944313E-2,2.1357408E-1,2.1938938E-1,-1.069045E-1,-4.9397945E-1,8.9943014E-2,1.8598287E-1,-1.0536047E-1],"split_indices":[6,8,11,9,4,4,16,16,4,4,4,4,9,14,4,11,4,4,4,11,4,4,0,4,0,4,4,4,4,4,4,4,14,2147483647,2147483647,4,4,2147483647,2147483647,4,16,4,0,4,0,2147483647,2147483647,4,4,4,0,4,8,0,4,4,0,0,0,4,4,4,4,16,4,14,4,2147483647,2147483647,14,0,11,11,4,11,2147483647,2147483647,16,4,8,8,0,0,9,0,4,4,9,4,0,4,0,0,0,0,0,0,0,0,2147483647,2147483647,0,0,2147483647,2147483647,2147483647,2147483647,2147483647,2147483647,0,0,0,0,0,0,2147483647,2147483647,2147483647,2147483647,2147483647,2147483647,0,0,0,0,0,0,0,0,0,0,2147483647,2147483647,0,0,0,0,0,0,0,0],"split_type":[0,0,0,0,0,0,0,0,0,0,0,0,0,0,0,0,0,0,0,0,0,0,0,0,0,0,0,0,0,0,0,0,0,0,0,0,0,0,0,0,0,0,0,0,0,0,0,0,0,0,0,0,0,0,0,0,0,0,0,0,0,0,0,0,0,0,0,0,0,0,0,0,0,0,0,0,0,0,0,0,0,0,0,0,0,0,0,0,0,0,0,0,0,0,0,0,0,0,0,0,0,0,0,0,0,0,0,0,0,0,0,0,0,0,0,0,0,0,0,0,0,0,0,0,0,0,0,0,0,0,0,0,0,0,0,0,0,0,0,0,0],"sum_hessian":[9.0446967E2,4.2353757E2,4.809321E2,2.208498E2,2.0268777E2,1.6360672E2,3.1732538E2,1.5975198E2,6.1097816E1,1.7754686E2,2.5140911E1,1.9192566E1,1.4441415E2,2.912105E2,2.6114845E1,1.5206554E2,7.686444E0,4.033811E1,2.0759703E1,4.8317787E1,1.2922908E2,2.3656307E1,1.4846053E0,1.0629744E1,8.562823E0,1.2957104E2,1.4843113E1,2.4108319E2,5.012733E1,1.8220419E1,7.894426E0,4.6922512E1,1.0514303E2,1.0060029E0,6.680441E0,3.1027128E1,9.310985E0,1.9273987E1,1.4857154E0,1.4533228E1,3.3784557E1,9.301394E1,3.621514E1,1.5202537E1,8.45377E0,3.3749564E0,7.2547874E0,4.5603024E1,8.3968025E1,5.708556E0,9.134557E0,1.6006381E2,8.101939E1,1.0887601E1,3.9239727E1,6.564E0,1.1656419E1,6.8093877E0,1.0850383E0,2.130734E1,2.5615171E1,9.609091E1,9.052114E0,8.60869E0,2.241844E1,6.180112E0,3.1308727E0,1.29402275E1,1.5930009E0,3.0486414E1,3.2981443E0,8.321962E1,9.794317E0,5.117667E0,1.0084869E1,1.1828479E0,6.0719395E0,2.0880651E1,2.4722372E1,2.7780247E1,5.6187775E1,2.3482306E0,3.3603256E0,1.5744408E2,2.6197362E0,4.4250225E1,3.6769157E1,2.782048E1,1.1419249E1,3.372099E0,3.1919012E0,1.815983E1,3.1475096E0,2.0057222E1,5.5579486E0,2.1599736E0,9.393094E1,4.116656E0,4.9354577E0,7.39047E0,1.2182198E0,1.7479078E0,2.0670532E1,5.0816174E0,1.0984945E0,2.0581484E0,1.0727243E0,3.1782932E0,9.761934E0,2.7960215E1,2.526199E0,4.2585945E1,4.0633675E1,1.5468218E0,8.247495E0,2.380993E0,2.7366743E0,2.6360323E0,7.4488373E0,2.0050454E0,4.066894E0,1.9778078E1,1.1025736E0,2.0008604E1,4.713769E0,6.021304E0,2.1758944E1,2.333958E1,3.2848194E1,1.4453114E2,1.29129305E1,1.0202286E0,4.3229996E1,8.427648E0,2.834151E1,2.608173E1,1.7387506E0,2.9416192E0,8.477629E0,1.8060237E0,1.3858774E0],"tree_param":{"num_deleted":"26","num_feature":"17","num_nodes":"141","size_leaf_vector":"0"}},{"base_weights":[-1.9974528E-2,-8.8236094E-1,2.4369399E-1,-1.0533946E0,-5.909826E-1,9.946228E-2,7.0250535E-1,-7.2913426E-1,-1.1179948E0,-3.680175E-1,-1.1338235E0,-1.4499804E-1,3.935184E-1,7.89515E-1,-2.2576258E-2,-1.0689901E0,1.3480069E-1,-5.54213E-1,5.25343E-1,-3.1520788E-2,-1.1398976E0,4.3854904E-1,-9.2478347E-1,-7.689951E-1,8.265215E-1,-4.6897155E-1,8.6673886E-1,1.3432834E0,-8.891215E-1,-1.01439156E-1,-9.125448E-1,9.596163E-1,-5.5852616E-1,4.313669E-1,-3.4725687E-1,-4.5017585E-1,-1.2142613E0,5.5149084E-1,-2.5477914E-2,-2.0469864E-1,-1.5937188E0,1.0030224E0,6.758774E-1,9.1956574E-1,-1.0421839E0,1.0120656E0,6.4246796E-2,3.3526534E-1,-1.0519823E0,9.948392E-2,-1.1703595E0,3.0379796E-1,1.0275469E0,-1.1039172E-1,-7.0668113E-1,5.247036E-1,-1.0543424E0,-1.7725852E-1,-8.0866545E-1,-7.797522E-1,2.2033955E-1,-1.2473905E0,-2.3942631E-1,8.3977884E-1,3.18961E-1,1.6468942E-1,-1.162876E0,-9.107046E-1,6.5822995E-1,1.0221659E0,4.976435E-1,1.0326971E0,5.150421E-1,-1.4613771E0,2.4319467E-1,-9.072886E-1,7.599427E-1,3.8569158E-1,-3.9233983E-1,-5.621873E-1,6.1915463E-1,5.229379E-2,-7.1044326E-1,-1.3411453E-1,-1.2095743E0,9.5154446E-1,-5.3949755E-1,-2.980027E-1,4.5870638E-1,-8.4608763E-1,4.9432892E-1,1.0846289E0,7.389007E-1,-2.647322E-1,8.253055E-1,5.592002E-1,1.1098975E0,2.9733315E-1,9.735869E-1,6.534755E-1,-3.059517E-1],"categories":[],"categories_nodes":[],"categories_segments":[],"categories_sizes":[],"default_left":[true,true,true,true,true,true,true,true,false,true,false,true,true,true,true,false,true,true,true,true,true,true,true,false,true,true,true,false,false,true,true,true,true,true,true,true,true,true,true,true,false,true,true,false,true,true,true,true,false,true,false,true,true,true,true,true,false,true,true,true,true,true,true,true,true,true,false,false,false,true,true,true,true,false,true,false,false,true,true,false,false,false,false,false,false,false,false,false,false,false,false,true,true,true,true,true,true,false,false,true,true],"id":7,"left_children":[1,3,5,7,9,11,13,15,-1,17,-1,19,21,23,25,-1,27,29,31,33,-1,37,39,-1,41,43,-1,-1,-1,47,49,-1,-1,55,57,-1,-1,63,65,67,-1,-1,71,-1,73,-1,-1,75,-1,-1,-1,-1,-1,-1,-1,79,-1,81,83,-1,-1,-1,-1,85,87,89,-1,-1,-1,-1,-1,-1,97,-1,-1,-1,-1,-1,-1,-1,-1,-1,-1,-1,-1,-1,-1,-1,-1,-1,-1,-1,-1,-1,-1,-1,-1,-1,-1,-1,-1],"loss_changes":[1.9231607E2,9.246658E0,4.2798046E1,1.7720337E0,8.7239895E0,3.5570045E1,9.782143E0,7.0126896E0,0E0,9.442677E0,0E0,3.0502226E1,1.3734707E1,8.60717E0,7.375451E0,0E0,1.0465445E1,7.373007E0,5.244053E0,3.5785233E1,8.723068E-1,1.142823E1,3.4010606E0,0E0,2.9246445E0,1.0777554E1,6.6013193E-1,0E0,0E0,9.25819E0,6.7857494E0,2.2362709E-2,1.539228E-1,1.4325939E1,1.1270113E1,1.11799E0,4.888153E-1,1.14771385E1,9.619678E0,3.5687745E0,0E0,7.495499E-2,3.839241E0,0E0,5.3129997E0,0E0,0E0,8.846591E0,0E0,1.0115728E0,0E0,0E0,0E0,0E0,0E0,1.0009861E1,0E0,1.3208258E1,1.0356411E1,0E0,0E0,0E0,0E0,1.2477623E1,8.637236E0,1.315324E1,0E0,0E0,0E0,2.1019745E-1,1.255272E0,2.0802498E-1,5.1508617E0,0E0,9.0288544E-1,0E0,0E0,0E0,0E0,0E0,0E0,0E0,0E0,0E0,0E0,0E0,0E0,0E0,0E0,0E0,0E0,0E0,0E0,0E0,0E0,0E0,0E0,0E0,0E0,0E0,0E0],"parents":[2147483647,0,0,1,1,2,2,3,3,4,4,5,5,6,6,7,7,9,9,11,11,12,12,13,13,14,14,16,16,17,17,18,18,19,19,20,20,21,21,22,22,24,24,25,25,26,26,29,29,30,30,31,31,32,32,33,33,34,34,35,35,36,36,37,37,38,38,39,39,41,41,42,42,44,44,47,47,49,49,55,55,57,57,58,58,63,63,64,64,65,65,69,69,70,70,71,71,72,72,74,74],"right_children":[2,4,6,8,10,12,14,16,-1,18,-1,20,22,24,26,-1,28,30,32,34,-1,38,40,-1,42,44,-1,-1,-1,48,50,-1,-1,56,58,-1,-1,64,66,68,-1,-1,72,-1,74,-1,-1,76,-1,-1,-1,-1,-1,-1,-1,80,-1,82,84,-1,-1,-1,-1,86,88,90,-1,-1,-1,-1,-1,-1,98,-1,-1,-1,-1,-1,-1,-1,-1,-1,-1,-1,-1,-1,-1,-1,-1,-1,-1,-1,-1,-1,-1,-1,-1,-1,-1,-1,-1],"split_conditions":[4.5059196E1,3.4185467E1,5E-1,4.256013E0,4.5826178E0,6.7006744E1,5E-1,2.9939922E1,-2.794987E-1,4.540045E0,-2.8345588E-1,5E-1,8.197744E1,5.5007095E1,3.436999E1,-2.6724753E-1,3.1E1,2.7584293E1,5E-1,5E-1,-2.849744E-1,5E-1,5E-1,-1.9224878E-1,5E-1,2.225E1,2.1668471E-1,3.3582085E-1,-2.2228037E-1,4.1906937E1,4.168332E0,2.3990408E-1,-1.3963154E-1,5E-1,5.8986572E1,-1.1254396E-1,-3.0356532E-1,5E-1,3.445E1,5.1850424E0,-3.984297E-1,2.507556E-1,6.0980003E1,2.2989143E-1,5.2729845E0,2.530164E-1,1.6061699E-2,4.3594112E0,-2.6299557E-1,2.487098E-2,-2.9258987E-1,7.594949E-2,2.5688672E-1,-2.759793E-2,-1.7667028E-1,2.5603634E1,-2.635856E-1,4.654625E0,2.825E1,-1.9493805E-1,5.5084888E-2,-3.1184763E-1,-5.985658E-2,5.301576E0,7.103291E1,2.655E1,-2.90719E-1,-2.2767615E-1,1.6455749E-1,2.5554147E-1,1.24410875E-1,2.5817427E-1,5.4004765E0,-3.653443E-1,6.0798667E-2,-2.2682215E-1,1.8998568E-1,9.6422896E-2,-9.808496E-2,-1.4054683E-1,1.5478866E-1,1.3073447E-2,-1.7761081E-1,-3.3528633E-2,-3.023936E-1,2.3788612E-1,-1.3487439E-1,-7.450067E-2,1.14676595E-1,-2.1152191E-1,1.2358223E-1,2.7115723E-1,1.8472518E-1,-6.618305E-2,2.0632638E-1,1.3980006E-1,2.7747437E-1,7.433329E-2,2.4339673E-1,1.6336888E-1,-7.648793E-2],"split_indices":[0,0,2,13,13,0,9,5,0,13,0,9,0,0,5,0,5,5,8,8,5,9,8,0,8,5,5,0,0,0,13,5,13,16,0,2147483647,2147483647,8,5,13,0,0,0,0,13,2147483647,2147483647,13,0,0,0,2147483647,2147483647,2147483647,2147483647,5,0,13,5,2147483647,2147483647,2147483647,2147483647,13,0,5,0,0,0,2147483647,2147483647,5,13,0,13,0,0,2147483647,2147483647,0,0,0,0,0,0,0,0,0,0,0,0,2147483647,2147483647,2147483647,2147483647,2147483647,2147483647,0,0,2147483647,2147483647],"split_type":[0,0,0,0,0,0,0,0,0,0,0,0,0,0,0,0,0,0,0,0,0,0,0,0,0,0,0,0,0,0,0,0,0,0,0,0,0,0,0,0,0,0,0,0,0,0,0,0,0,0,0,0,0,0,0,0,0,0,0,0,0,0,0,0,0,0,0,0,0,0,0,0,0,0,0,0,0,0,0,0,0,0,0,0,0,0,0,0,0,0,0,0,0,0,0,0,0,0,0,0,0],"sum_hessian":[8.438304E2,1.970355E2,6.4679486E2,1.2250952E2,7.452599E1,4.9302466E2,1.5377022E2,2.2393312E1,1.0011621E2,5.4017094E1,2.0508898E1,2.694922E2,2.2353249E2,1.372155E2,1.655471E1,1.590086E1,6.4924526E0,4.5014698E1,9.002397E0,2.4282724E2,2.6664951E1,2.1679454E2,6.7379465E0,2.723803E0,1.344917E2,1.1336812E1,5.217898E0,2.8347926E0,3.6576598E0,2.0453526E1,2.4561172E1,6.509055E0,2.4933412E0,9.831923E1,1.44508E2,3.2816267E0,2.3383324E1,1.7420535E2,4.258918E1,3.8738701E0,2.8640761E0,5.932537E1,7.516633E1,3.136E0,8.200811E0,4.1967387E0,1.0211594E0,1.4458296E1,5.99523E0,5.1113095E0,1.9449863E1,1.1245509E0,5.384504E0,1.0530919E0,1.4402494E0,9.311623E1,5.203008E0,1.0661254E2,3.7895462E1,2.0909526E0,1.1906741E0,2.2344372E1,1.0389518E0,7.66116E1,9.759375E1,3.7221188E1,5.3679934E0,2.1002133E0,1.773657E0,5.6174927E1,3.1504426E0,2.166991E1,5.349642E1,6.080793E0,2.1200185E0,3.3933501E0,1.1064946E1,3.3674674E0,1.7438419E0,7.048921E0,8.606731E1,7.515706E1,3.1455486E1,1.4624119E1,2.3271341E1,7.1155815E1,5.45579E0,1.7814007E1,7.977974E1,8.768263E0,2.8452925E1,4.370785E1,1.2467074E1,1.0047454E0,2.1456974E0,4.193461E0,1.747645E1,3.7391853E1,1.6104565E1,1.1046917E0,1.0153267E0],"tree_param":{"num_deleted":"24","num_feature":"17","num_nodes":"101","size_leaf_vector":"0"}},{"base_weights":[-1.6375685E-2,-8.0280095E-1,2.0907222E-1,-9.6606517E-1,-4.3332905E-1,8.640564E-2,6.2889487E-1,-7.55797E-1,-1.101705E0,2.4293467E-1,-5.3526723E-1,-8.952031E-2,3.022665E-1,-8.6508673E-1,6.641577E-1,-4.3767112E-1,-1.085059E0,-7.822644E-1,7.2332764E-1,-9.6264803E-1,-2.7261257E-1,4.937671E-3,-1.0400509E0,5.224703E-1,3.7291903E-2,7.492341E-1,-8.548978E-3,-9.6124524E-1,2.8767696E-1,1.2877568E0,2.5505254E-1,-1.0094259E0,-1.08568415E-1,1.6646734E-1,-6.918243E-1,-4.0891433E-1,2.0150855E-1,-1.1429695E0,-5.8852446E-1,6.2717783E-1,-5.6255277E-2,-5.288423E-1,1.7822322E-1,9.6574575E-1,5.738287E-1,-3.4604028E-1,7.565147E-1,-1.0407109E0,9.2908934E-2,6.423029E-1,-7.9292923E-1,6.811664E-1,-5.594172E-1,5.493392E-1,-9.213531E-1,-1.165217E0,-2.2053337E-1,7.599243E-2,-9.158316E-1,-6.2730706E-1,3.4102532E-1,-3.6707935E-1,-1.2033778E0,-8.2656235E-1,1.8074523E-1,6.914554E-1,-2.8570792E-1,5.226948E-1,-4.5814148E-1,-1.0122937E0,1.928895E-1,-4.6954197E-1,3.8218266E-1,6.422455E-1,1.0542265E0,6.8198735E-1,-5.769999E-1,8.302536E-1,-8.516138E-1,8.976043E-1,1.1196089E-1,8.9364046E-1,-6.300854E-1,-8.923575E-1,8.9137834E-1,7.569578E-1,-6.6010153E-1,-1.0862101E0,4.94573E-1,7.400335E-2,-1.0671395E0,-8.004446E-1,4.581889E-1,4.3544877E-1,-8.970181E-1,-3.3850265E-1,-1.282758E0,-1.1744169E-1,-9.8433447E-1,9.3532944E-1,4.8101223E-1,-1.2708324E0,3.3921465E-1,-5.914724E-1,1.0393881E0,-7.9091436E-1,6.384803E-2,1.3616253E-1,-1.2882692E0,9.6493566E-1,-8.2919395E-1,-8.5655516E-1,2.722691E-1,6.836859E-1,-2.0760746E-1,8.917208E-1,-9.5471567E-1,7.662475E-1,1.1195623E-1,-1.0994008E0,7.161249E-1,-1.2719421E0,9.211862E-3],"categories":[],"categories_nodes":[],"categories_segments":[],"categories_sizes":[],"default_left":[true,true,true,true,true,true,true,true,false,true,true,true,true,false,true,true,false,false,true,true,true,true,true,true,true,true,true,true,true,false,true,true,true,true,true,true,true,true,true,true,true,true,true,true,true,true,true,true,true,true,false,false,false,true,false,false,true,true,true,true,true,true,true,true,true,true,true,true,true,true,true,true,true,true,false,true,true,false,true,true,true,false,false,false,false,false,false,false,false,false,false,false,false,false,false,true,true,true,true,false,false,false,false,false,false,false,false,false,false,false,false,false,false,false,false,false,false,false,false,false,false,false,false],"id":8,"left_children":[1,3,5,7,9,11,13,15,-1,17,19,21,23,-1,25,27,-1,-1,29,-1,33,35,-1,39,41,43,45,-1,49,-1,51,-1,-1,53,55,57,59,-1,-1,65,67,69,71,73,75,77,-1,-1,-1,81,-1,-1,-1,83,-1,-1,85,87,89,91,93,-1,-1,-1,-1,99,101,103,105,107,109,111,113,115,-1,117,119,-1,121,-1,-1,-1,-1,-1,-1,-1,-1,-1,-1,-1,-1,-1,-1,-1,-1,-1,-1,-1,-1,-1,-1,-1,-1,-1,-1,-1,-1,-1,-1,-1,-1,-1,-1,-1,-1,-1,-1,-1,-1,-1,-1,-1,-1],"loss_changes":[1.3601935E2,9.891846E0,3.0654428E1,2.5250702E0,3.8661337E0,1.7595715E1,7.6695976E0,4.6943398E0,0E0,4.4009356E0,5.059367E0,2.2960072E1,1.2115E1,0E0,7.5687866E0,1.0445129E1,0E0,0E0,1.2103508E0,5.9558487E-1,5.776744E0,1.9082018E1,4.0148354E-1,6.9131145E0,7.7109947E0,3.901062E0,4.347509E0,1.4186478E0,5.1057167E0,0E0,1.9181726E0,0E0,0E0,7.0989013E0,3.2968907E0,1.8637651E1,1.8601002E1,3.9080048E-1,1.3125665E0,5.8420525E0,4.499001E0,6.9224586E0,1.0376921E1,7.838745E-1,8.767103E0,7.645007E0,3.6852407E-1,0E0,0E0,3.6277943E0,0E0,0E0,0E0,6.877894E0,0E0,0E0,4.45941E0,1.976809E1,5.6216393E0,4.738701E0,1.637661E1,0E0,6.6703224E-1,4.472046E-1,0E0,4.177204E0,4.7621746E0,5.201913E0,2.0200996E0,3.8855705E0,7.5658016E0,5.668371E0,1.0678491E1,6.238045E0,0E0,2.8898182E0,5.0573688E0,0E0,3.142624E0,0E0,0E0,0E0,0E0,0E0,0E0,0E0,0E0,0E0,0E0,0E0,0E0,0E0,0E0,0E0,0E0,0E0,0E0,0E0,0E0,0E0,0E0,0E0,0E0,0E0,0E0,0E0,0E0,0E0,0E0,0E0,0E0,0E0,0E0,0E0,0E0,0E0,0E0,0E0,0E0,0E0,0E0,0E0,0E0],"parents":[2147483647,0,0,1,1,2,2,3,3,4,4,5,5,6,6,7,7,9,9,10,10,11,11,12,12,14,14,15,15,18,18,19,19,20,20,21,21,22,22,23,23,24,24,25,25,26,26,27,27,28,28,30,30,33,33,34,34,35,35,36,36,37,37,38,38,39,39,40,40,41,41,42,42,43,43,44,44,45,45,46,46,49,49,53,53,56,56,57,57,58,58,59,59,60,60,62,62,63,63,65,65,66,66,67,67,68,68,69,69,70,70,71,71,72,72,73,73,75,75,76,76,78,78],"right_children":[2,4,6,8,10,12,14,16,-1,18,20,22,24,-1,26,28,-1,-1,30,-1,34,36,-1,40,42,44,46,-1,50,-1,52,-1,-1,54,56,58,60,-1,-1,66,68,70,72,74,76,78,-1,-1,-1,82,-1,-1,-1,84,-1,-1,86,88,90,92,94,-1,-1,-1,-1,100,102,104,106,108,110,112,114,116,-1,118,120,-1,122,-1,-1,-1,-1,-1,-1,-1,-1,-1,-1,-1,-1,-1,-1,-1,-1,-1,-1,-1,-1,-1,-1,-1,-1,-1,-1,-1,-1,-1,-1,-1,-1,-1,-1,-1,-1,-1,-1,-1,-1,-1,-1,-1,-1],"split_conditions":[4.6033424E1,3.8021828E1,5E-1,4.4103103E0,4.1651053E0,6.702482E1,5.5007095E1,5E-1,-2.7542624E-1,3.3636918E0,5E-1,5E-1,3.3568444E0,-2.1627168E-1,5E-1,3.2350345E0,-2.7126476E-1,-1.955661E-1,3.4379692E0,-2.4066201E-1,4.1970436E1,5E-1,-2.6001272E-1,5E-1,7.100983E1,5E-1,3.5163264E0,-2.4031131E-1,3.433982E0,3.219392E-1,4.3192314E1,-2.5235647E-1,-2.7142104E-2,3.404379E0,3.396605E0,5.498637E1,3.3050518E0,-2.8574237E-1,-1.4713112E-1,5.300983E0,4.365351E0,5.127655E0,3.4408183E0,4.550782E0,5E-1,3.0887022E0,1.8912868E-1,-2.6017773E-1,2.3227233E-2,5E-1,-1.9823231E-1,1.702916E-1,-1.398543E-1,4.409895E0,-2.3033828E-1,-2.9130426E-1,3.4127696E0,4.5316424E0,3.1759663E0,5.283907E0,5E-1,-9.176984E-2,-3.0084446E-1,-2.0664059E-1,4.5186307E-2,5E-1,3.2484326E0,4.2263947E0,5E-1,6.85E1,5.224449E0,7.9016815E1,3.535067E0,5E-1,2.6355663E-1,5E-1,5.4666157E0,2.075634E-1,5.272952E0,2.2440107E-1,2.7990222E-2,2.2341011E-1,-1.5752135E-1,-2.2308938E-1,2.2284459E-1,1.8923946E-1,-1.6502538E-1,-2.7155253E-1,1.2364325E-1,1.8500838E-2,-2.6678488E-1,-2.0011115E-1,1.1454722E-1,1.0886219E-1,-2.2425452E-1,-8.462566E-2,-3.206895E-1,-2.9360423E-2,-2.4608362E-1,2.3383236E-1,1.2025306E-1,-3.177081E-1,8.480366E-2,-1.478681E-1,2.5984702E-1,-1.9772859E-1,1.5962008E-2,3.4040634E-2,-3.220673E-1,2.4123392E-1,-2.0729849E-1,-2.1413879E-1,6.8067275E-2,1.7092147E-1,-5.1901866E-2,2.229302E-1,-2.3867892E-1,1.9156188E-1,2.7989058E-2,-2.748502E-1,1.7903122E-1,-3.1798553E-1,2.3029656E-3],"split_indices":[0,0,2,13,13,0,0,8,0,12,11,9,12,0,9,12,0,0,12,13,0,11,12,9,0,8,12,13,12,0,0,2147483647,2147483647,12,12,0,12,2147483647,2147483647,13,13,13,12,13,15,12,12,2147483647,2147483647,9,0,0,0,13,0,0,12,13,12,13,16,2147483647,2147483647,2147483647,2147483647,8,12,13,15,0,13,0,12,15,0,16,13,0,13,2147483647,2147483647,0,0,0,0,0,0,0,0,0,0,0,0,0,0,2147483647,2147483647,2147483647,2147483647,0,0,0,0,0,0,0,0,0,0,0,0,0,0,0,0,0,0,0,0,0,0,0,0],"split_type":[0,0,0,0,0,0,0,0,0,0,0,0,0,0,0,0,0,0,0,0,0,0,0,0,0,0,0,0,0,0,0,0,0,0,0,0,0,0,0,0,0,0,0,0,0,0,0,0,0,0,0,0,0,0,0,0,0,0,0,0,0,0,0,0,0,0,0,0,0,0,0,0,0,0,0,0,0,0,0,0,0,0,0,0,0,0,0,0,0,0,0,0,0,0,0,0,0,0,0,0,0,0,0,0,0,0,0,0,0,0,0,0,0,0,0,0,0,0,0,0,0,0,0],"sum_hessian":[7.6523285E2,1.6992523E2,5.953076E2,1.1672948E2,5.319576E1,4.61631E2,1.336766E2,4.8349873E1,6.837961E1,6.787035E0,4.6408722E1,2.5466504E2,2.0696596E2,2.5398123E0,1.311368E2,2.5775438E1,2.2574434E1,1.9650557E0,4.821979E0,1.6650555E1,2.9758167E1,2.325504E2,2.2114649E1,1.1250136E2,9.446461E1,1.16313065E2,1.48237295E1,1.4780959E1,1.0994479E1,1.3929746E0,3.4290047E0,1.5613517E1,1.0370382E0,1.4829128E1,1.4929039E1,7.453897E1,1.5801143E2,1.6762535E1,5.3521123E0,9.519433E1,1.7307022E1,1.8279934E1,7.618468E1,5.0040173E1,6.627289E1,1.06662445E1,4.157485E0,1.3756687E1,1.0242723E0,8.583284E0,2.4111946E0,2.3586674E0,1.0703374E0,1.1334737E1,3.4943914E0,6.713352E0,8.215687E0,3.8531048E1,3.6007923E1,2.2262451E1,1.3574898E2,1.7219748E0,1.5040561E1,4.0304723E0,1.3216404E0,8.915908E1,6.0352554E0,6.9681807E0,1.0338841E1,1.0705963E1,7.573971E0,1.7931852E1,5.8252823E1,1.2520766E1,3.751941E1,6.095183E1,5.3210583E0,3.0132525E0,7.652992E0,3.088771E0,1.068714E0,7.4160447E0,1.1672403E0,1.8649654E0,9.469771E0,2.324507E0,5.8911796E0,9.780417E0,2.875063E1,4.842151E0,3.1165773E1,1.9426506E1,2.8359444E0,1.2673164E2,9.01733E0,1.7069591E0,1.3333602E1,1.0510064E0,2.9794657E0,3.9703613E1,4.9455463E1,1.9413455E0,4.0939097E0,2.1618237E0,4.806357E0,5.999143E0,4.3396983E0,2.1723723E0,8.533591E0,4.346608E0,3.2273629E0,1.1682334E1,6.249518E0,3.8441936E1,1.9810886E1,1.121101E1,1.3097562E0,5.2802513E1,8.149321E0,3.8966768E0,1.4243815E0,4.821259E0,2.8317327E0],"tree_param":{"num_deleted":"16","num_feature":"17","num_nodes":"123","size_leaf_vector":"0"}},{"base_weights":[-3.5857086E-3,-1.7976548E-1,4.9327552E-1,-2.9175773E-1,4.717019E-1,5.9127766E-1,-9.1772474E-2,-8.0189514E-1,-1.9977039E-1,5.82878E-1,-3.9135417E-1,7.9724056E-1,2.88365E-1,-3.5286477E-1,3.7367234E-1,-1.0445734E0,-6.213513E-1,-1.3275138E-1,-7.2210956E-1,6.8879545E-1,-1.8588835E-1,-7.836739E-1,7.9050475E-1,-1.1579202E-1,8.256713E-1,3.928548E-1,-3.5083812E-1,-2.2958228E-2,-1.285928E0,-3.4305748E-1,6.4886874E-1,-1.0752645E0,-2.6393238E-1,-4.6903998E-1,-1.0097982E0,-1.2668518E-2,-4.5682168E-1,2.0628768E-1,-7.6395476E-1,8.217519E-1,9.705436E-2,8.289281E-1,-6.1399037E-1,-1.7490786E-1,-1.5851448E0,6.349434E-1,-8.957621E-1,8.840104E-1,4.2637253E-1,-9.8868227E-1,4.4088492E-1,-8.205572E-1,1.2309801E-1,6.5958613E-1,-2.828293E-1,4.48889E-1,-1.1493552E0,-2.6803815E-1,8.266513E-1,-7.478412E-1,2.9984963E-1,-1.0752438E0,-2.847635E-1,-4.834818E-1,1.2883145E-1,-2.304824E-1,-9.2539996E-1,-5.649571E-1,-8.857419E-1,8.568105E-1,1.5771055E-1,-8.87094E-1,3.8641098E-1,-1.106874E0,6.8154263E-1,-7.134782E-1,6.738614E-1,2.0847188E-1,9.069897E-1,6.0131687E-1,-8.5909784E-1,9.82457E-1,2.863146E-1,-1.9967704E-1,-1.0685086E0,-2.0725805E-1,6.139007E-1,7.394018E-2,8.2202584E-1,-5.068438E-1,6.65257E-1,-9.017604E-1,-2.2725777E-1,5.913051E-1,-6.7113507E-1,7.578137E-1,-6.69996E-1,2.1116705E-1,-8.093983E-1,4.9241745E-1,-4.8573065E-1,-1.0601171E0,-5.2889574E-1,-5.4045403E-3,-8.366451E-1,-1.0175467E0,-5.3868157E-1,-5.42324E-1,6.6032916E-1,8.7522215E-1,-2.5164437E-2,4.181197E-3,-9.7915167E-1,4.619075E-1,-2.2746696E-1,2.100697E-1,9.161375E-1,-2.512082E-1,7.058178E-1,4.5608467E-1,1.1050892E0,-2.9559857E-1,5.981164E-1,4.7768328E-1,-5.979728E-1,-7.9629743E-1,3.3033043E-1],"categories":[],"categories_nodes":[],"categories_segments":[],"categories_sizes":[],"default_left":[true,true,true,true,true,true,true,true,true,true,true,true,true,true,true,true,true,true,true,true,true,true,false,true,true,true,true,true,false,true,true,true,true,true,true,true,true,false,true,true,true,false,true,true,false,false,false,true,true,false,true,true,true,true,true,false,false,true,true,true,true,true,true,true,true,true,true,true,true,false,true,false,true,false,false,true,false,true,true,true,false,true,true,true,true,true,true,true,true,true,false,false,false,false,false,false,false,false,false,false,false,true,true,false,false,true,true,false,false,false,false,true,true,true,true,true,true,true,true,true,true,false,false,true,true,false,false],"id":9,"left_children":[1,3,5,7,9,11,13,15,17,19,21,23,25,27,29,-1,33,35,37,39,41,43,-1,45,47,49,51,53,-1,55,-1,-1,-1,59,-1,63,65,-1,67,69,71,-1,73,75,-1,-1,-1,-1,79,-1,81,-1,-1,-1,89,-1,-1,-1,-1,91,93,-1,-1,95,97,99,-1,103,-1,-1,107,-1,109,-1,-1,-1,-1,-1,-1,-1,-1,-1,121,-1,-1,-1,-1,-1,-1,125,-1,-1,-1,-1,-1,-1,-1,-1,-1,-1,-1,-1,-1,-1,-1,-1,-1,-1,-1,-1,-1,-1,-1,-1,-1,-1,-1,-1,-1,-1,-1,-1,-1,-1,-1,-1,-1],"loss_changes":[6.1212494E1,3.780025E1,1.0549564E1,2.0539337E1,7.5305634E0,9.560165E0,3.4286869E0,2.2889862E0,1.3033436E1,5.650547E0,4.9238267E0,2.5056038E0,4.4844522E0,5.478711E0,2.2413497E0,3.6639404E-1,1.9473295E0,1.2977425E1,1.8057175E0,4.626816E0,4.4190774E0,3.3683105E0,0E0,2.723984E0,1.7233543E0,4.178794E0,2.2541363E0,2.71201E0,0E0,2.746809E0,1.4834719E0,0E0,0E0,6.925583E0,1.9953442E-1,1.634792E1,9.35017E0,0E0,4.8856163E-1,9.989319E-1,3.7911227E0,0E0,5.1631956E0,2.935732E0,0E0,0E0,0E0,1.0176392E0,3.5357404E0,0E0,4.3398304E0,5.54538E-1,1.0488197E0,3.4127283E-1,2.6759286E0,0E0,0E0,0E0,0E0,1.6563044E0,2.953082E0,0E0,0E0,1.363529E1,1.4752077E1,1.1704121E1,9.904022E-1,2.7704592E0,5.2928543E-1,0E0,1.6488636E0,0E0,2.0448005E0,0E0,0E0,7.2314894E-1,0E0,5.3105974E-1,2.8492737E-1,1.2824912E0,0E0,2.6064587E-1,8.225069E0,0E0,0E0,1.3948692E0,0E0,0E0,0E0,2.559003E0,0E0,0E0,0E0,0E0,0E0,0E0,0E0,0E0,0E0,0E0,0E0,0E0,0E0,0E0,0E0,0E0,0E0,0E0,0E0,0E0,0E0,0E0,0E0,0E0,0E0,0E0,0E0,0E0,0E0,0E0,0E0,0E0,0E0,0E0,0E0,0E0,0E0],"parents":[2147483647,0,0,1,1,2,2,3,3,4,4,5,5,6,6,7,7,8,8,9,9,10,10,11,11,12,12,13,13,14,14,15,15,16,16,17,17,18,18,19,19,20,20,21,21,23,23,24,24,25,25,26,26,27,27,29,29,30,30,33,33,34,34,35,35,36,36,38,38,39,39,40,40,42,42,43,43,47,47,48,48,50,50,51,51,52,52,53,53,54,54,59,59,60,60,63,63,64,64,65,65,66,66,67,67,68,68,70,70,72,72,75,75,77,77,78,78,79,79,81,81,82,82,85,85,89,89],"right_children":[2,4,6,8,10,12,14,16,18,20,22,24,26,28,30,-1,34,36,38,40,42,44,-1,46,48,50,52,54,-1,56,-1,-1,-1,60,-1,64,66,-1,68,70,72,-1,74,76,-1,-1,-1,-1,80,-1,82,-1,-1,-1,90,-1,-1,-1,-1,92,94,-1,-1,96,98,100,-1,104,-1,-1,108,-1,110,-1,-1,-1,-1,-1,-1,-1,-1,-1,122,-1,-1,-1,-1,-1,-1,126,-1,-1,-1,-1,-1,-1,-1,-1,-1,-1,-1,-1,-1,-1,-1,-1,-1,-1,-1,-1,-1,-1,-1,-1,-1,-1,-1,-1,-1,-1,-1,-1,-1,-1,-1,-1,-1],"split_conditions":[5E-1,5E-1,5E-1,2.341597E1,5E-1,5E-1,5E-1,2.025E1,5E-1,5E-1,2.22445E2,5.751391E1,5E-1,2.0162283E2,2.78E1,-2.6114336E-1,1.04490005E2,5E-1,2.405E1,5E-1,2.08E1,1.3656735E2,1.9762619E-1,2.6094025E1,3.5360317E0,5.9375694E1,3.08E1,2.555E1,-3.21482E-1,8.493898E1,1.6221718E-1,-2.688161E-1,-6.5983094E-2,9.6265366E1,-2.5244954E-1,8.20976E1,9.6725E1,5.157192E-2,2.9119463E1,3.661856E0,9.497653E1,2.0723203E-1,3.4455215E1,1.09825E2,-3.962862E-1,1.5873586E-1,-2.2394052E-1,2.210026E-1,5E-1,-2.4717057E-1,7.0785E1,-2.051393E-1,3.0774502E-2,1.6489653E-1,1.987164E2,1.1222225E-1,-2.873388E-1,-6.700954E-2,2.0666282E-1,2.2906868E1,5E-1,-2.6881096E-1,-7.119087E-2,2.395E1,2.0754425E2,2.645E1,-2.3134999E-1,7.8454346E1,-2.2143547E-1,2.1420263E-1,2.187537E2,-2.217735E-1,1.0597008E2,-2.767185E-1,1.7038566E-1,-1.7836955E-1,1.6846535E-1,5.211797E-2,2.2674742E-1,1.5032922E-1,-2.1477446E-1,2.4561425E-1,1.1255E2,-4.991926E-2,-2.6712716E-1,-5.181451E-2,1.5347518E-1,1.8485045E-2,2.0550646E-1,3.8282616E1,1.6631424E-1,-2.254401E-1,-5.6814443E-2,1.4782627E-1,-1.6778377E-1,1.8945342E-1,-1.67499E-1,5.2791763E-2,-2.0234957E-1,1.2310436E-1,-1.2143266E-1,-2.6502928E-1,-1.3222393E-1,-1.3511351E-3,-2.0916128E-1,-2.5438666E-1,-1.3467039E-1,-1.35581E-1,1.6508229E-1,2.1880554E-1,-6.291109E-3,1.0452992E-3,-2.4478792E-1,1.1547688E-1,-5.686674E-2,5.2517425E-2,2.2903438E-1,-6.280205E-2,1.7645445E-1,1.1402117E-1,2.762723E-1,-7.389964E-2,1.495291E-1,1.1942082E-1,-1.494932E-1,-1.9907436E-1,8.258261E-2],"split_indices":[1,2,14,5,14,15,2,5,9,9,4,4,9,4,5,9,4,15,5,15,5,4,0,5,12,4,5,5,0,4,4,2147483647,2147483647,4,4,4,4,0,5,12,4,0,5,4,0,0,0,5,9,0,4,5,2,5,4,0,0,2147483647,2147483647,5,15,2147483647,2147483647,5,4,5,4,4,15,0,4,0,4,0,0,4,0,2147483647,2147483647,5,0,4,4,2147483647,2147483647,2147483647,2147483647,2147483647,2147483647,5,0,0,0,0,0,0,0,0,0,0,0,2147483647,2147483647,0,0,2147483647,2147483647,0,0,0,0,2147483647,2147483647,2147483647,2147483647,2147483647,2147483647,2147483647,2147483647,2147483647,2147483647,0,0,2147483647,2147483647,0,0],"split_type":[0,0,0,0,0,0,0,0,0,0,0,0,0,0,0,0,0,0,0,0,0,0,0,0,0,0,0,0,0,0,0,0,0,0,0,0,0,0,0,0,0,0,0,0,0,0,0,0,0,0,0,0,0,0,0,0,0,0,0,0,0,0,0,0,0,0,0,0,0,0,0,0,0,0,0,0,0,0,0,0,0,0,0,0,0,0,0,0,0,0,0,0,0,0,0,0,0,0,0,0,0,0,0,0,0,0,0,0,0,0,0,0,0,0,0,0,0,0,0,0,0,0,0,0,0,0,0],"sum_hessian":[6.972635E2,5.152142E2,1.8204927E2,4.4010834E2,7.5105865E1,1.5592023E2,2.6129038E1,6.60569E1,3.7405142E2,6.6822624E1,8.283241E0,9.184148E1,6.407875E1,1.689412E1,9.234918E0,2.6137897E1,3.9919E1,3.3262762E2,4.142382E1,5.882235E1,8.000273E0,6.4718246E0,1.8114169E0,2.6806786E0,8.91608E1,5.5406857E1,8.671898E0,1.3238087E1,3.6560333E0,2.4936886E0,6.7412295E0,2.4786018E1,1.3518807E0,3.0261026E1,9.657973E0,2.4345537E2,8.917225E1,1.6170669E0,3.9806755E1,4.771313E1,1.1109217E1,2.0958266E0,5.904446E0,4.3704414E0,2.1013832E0,1.4606831E0,1.2199955E0,7.6735535E1,1.2425262E1,1.2035426E0,5.4203312E1,3.988008E0,4.6838894E0,3.2262638E0,1.0011823E1,1.481666E0,1.0120227E0,1.0123575E0,5.728872E0,2.222835E1,8.032677E0,8.415335E0,1.2426387E0,5.5701794E1,1.8775357E2,6.1134212E1,2.8038033E1,1.7253603E1,2.2553152E1,4.5044666E1,2.668466E0,2.0547922E0,9.054424E0,4.3826833E0,1.5217628E0,2.7713382E0,1.5991032E0,2.855735E0,7.38798E1,1.1405294E1,1.0199677E0,1.0845965E1,4.335735E1,1.6533248E0,2.3346832E0,3.144837E0,1.5390527E0,1.0165323E0,2.2097316E0,8.474795E0,1.5370275E0,1.6590794E1,5.637557E0,6.4789495E0,1.5537275E0,6.876181E0,4.882561E1,1.733187E2,1.4434882E1,1.5710537E1,4.5423676E1,1.9678396E1,8.359636E0,5.972627E0,1.1280976E1,1.4945375E1,7.607776E0,1.0822034E0,1.5862627E0,3.623923E0,5.4305015E0,1.014675E0,1.7566632E0,1.7682074E0,1.0875275E0,1.267665E0,7.261213E1,1.0920888E0,1.0313206E1,2.9410915E0,7.9048743E0,1.5144763E1,2.8212585E1,1.0614599E0,2.083377E0,6.3337307E0,2.141065E0],"tree_param":{"num_deleted":"30","num_feature":"17","num_nodes":"127","size_leaf_vector":"0"}},{"base_weights":[1.7214625E-3,-9.020707E-2,4.856789E-1,-4.6580374E-2,-9.9039817E-1,8.3696924E-2,6.306523E-1,2.2090039E-1,-2.613338E-1,-1.7055099E-1,-1.023022E0,-2.1714386E-1,5.774175E-1,7.30948E-1,-3.778179E-1,4.150811E-1,-3.1509805E-1,-5.2516025E-1,-3.3822943E-2,5.402675E-1,-1.2988305E0,-6.691434E-1,7.729234E-1,8.149649E-1,1.768646E-1,-9.5646244E-1,1.0473613E-1,5.273088E-1,1.442465E-1,-9.3691176E-1,-1.6378422E-1,-9.134392E-2,-6.69797E-1,1.1677851E-1,-5.878311E-1,1.3050236E-1,8.43481E-1,-1.9462183E0,-3.1250226E-1,8.9886945E-1,2.8648302E-1,3.8355672E-1,8.8472E-1,6.1211145E-1,-6.895808E-1,4.7374865E-1,-5.863028E-1,2.6709942E-2,5.761168E-1,8.363405E-1,-1.17769055E-1,-1.0688347E0,-2.521854E-1,1.6599694E-1,-4.4306472E-1,-2.5491142E-1,6.5741545E-1,-7.561448E-1,3.8884094E-1,-4.381338E-1,2.782883E-1,-8.5589725E-1,8.0405104E-1,4.096744E-1,-5.216958E-1,-7.2872066E-1,1.4086081E-1,-2.5324818E-1,6.497263E-1,6.7342335E-1,-1.0949919E0,1.5108332E-1,8.9709765E-1,-5.522211E-1,8.853796E-1,-1.8210523E-2,-1.117911E0,6.7865354E-1,5.8301043E-2,3.2318014E-1,-9.1858107E-1,5.998422E-1,-2.9666772E-1,-6.141504E-1,9.9809647E-1,-1.4320073E0,5.2693444E-1,-2.0912695E-1,-1.1528623E0,-6.997017E-1,3.5427907E-1,-8.9352E-2,6.417184E-1,2.5636542E-1,-5.3210753E-1,7.195386E-2,-8.431046E-1,9.0431E-1,-1.6898175E-1,-1.110117E0,-6.088098E-1,-8.897735E-1,8.7730163E-1,5.646577E-1,-7.8740925E-1,6.048469E-1,-2.1345113E-1,8.236377E-2,-1.2072359E0,-3.5403248E-2,5.4374874E-1,8.936567E-1,3.2379892E-1],"categories":[],"categories_nodes":[],"categories_segments":[],"categories_sizes":[],"default_left":[true,true,true,true,true,true,true,true,true,true,true,true,true,true,true,true,true,true,true,true,true,false,true,true,true,false,true,true,true,true,true,true,true,true,true,true,true,false,true,true,true,true,true,true,true,true,false,true,true,true,true,true,true,true,true,true,true,true,true,true,true,true,false,true,true,true,true,true,true,true,false,true,true,false,false,true,true,true,true,false,false,false,false,false,false,false,false,true,true,true,true,false,false,false,false,false,false,true,true,false,false,false,false,false,false,false,false,false,false,true,true,true,true],"id":10,"left_children":[1,3,5,7,-1,11,13,15,17,-1,-1,19,21,23,25,27,29,31,33,-1,37,-1,-1,41,43,-1,45,47,49,-1,53,55,57,59,61,-1,-1,-1,-1,-1,-1,69,-1,73,-1,-1,-1,79,81,83,85,-1,-1,91,93,95,-1,99,101,103,105,107,-1,-1,-1,-1,-1,-1,-1,-1,-1,-1,-1,-1,-1,-1,-1,-1,-1,-1,-1,-1,-1,-1,-1,-1,-1,-1,-1,-1,-1,-1,-1,-1,-1,-1,-1,-1,-1,-1,-1,-1,-1,-1,-1,-1,-1,-1,-1,-1,-1,-1,-1],"loss_changes":[2.8539503E1,2.112574E1,5.914755E0,2.9653994E1,4.907093E-1,4.328032E0,7.872715E0,2.406839E1,1.7163492E1,0E0,0E0,1.5701404E1,3.1946852E0,3.0517921E0,2.181272E0,5.068613E0,5.6547847E0,8.251015E0,1.2981672E1,1.3155873E0,4.394002E0,0E0,3.5274792E-1,1.4462509E0,4.312613E0,0E0,1.5439129E0,2.899353E0,9.340539E0,8.026848E-1,4.757948E0,4.366171E0,9.361298E0,1.11029005E1,1.3092654E1,1.3176266E0,0E0,0E0,9.1321516E-1,0E0,8.5394967E-1,5.033535E0,3.213272E-1,2.8423681E0,1.1068382E0,2.8305793E-1,0E0,3.5607848E0,2.427742E0,3.925768E0,3.2821262E1,4.5555782E-1,1.1235169E0,2.9787526E0,1.8685112E0,5.608549E0,1.4638586E0,4.124859E0,5.8650074E0,1.0255114E1,1.5466751E1,9.448597E0,0E0,3.0602372E-1,0E0,0E0,0E0,0E0,0E0,4.0364075E-1,0E0,0E0,0E0,0E0,0E0,0E0,0E0,0E0,0E0,0E0,0E0,0E0,0E0,0E0,0E0,0E0,0E0,0E0,0E0,0E0,0E0,0E0,0E0,0E0,0E0,0E0,0E0,0E0,0E0,0E0,0E0,0E0,0E0,0E0,0E0,0E0,0E0,0E0,0E0,0E0,0E0,0E0,0E0],"parents":[2147483647,0,0,1,1,2,2,3,3,4,4,5,5,6,6,7,7,8,8,11,11,12,12,13,13,14,14,15,15,16,16,17,17,18,18,19,19,20,20,22,22,23,23,24,24,26,26,27,27,28,28,29,29,30,30,31,31,32,32,33,33,34,34,35,35,38,38,40,40,41,41,42,42,43,43,44,44,45,45,47,47,48,48,49,49,50,50,51,51,52,52,53,53,54,54,55,55,56,56,57,57,58,58,59,59,60,60,61,61,63,63,69,69],"right_children":[2,4,6,8,-1,12,14,16,18,-1,-1,20,22,24,26,28,30,32,34,-1,38,-1,-1,42,44,-1,46,48,50,-1,54,56,58,60,62,-1,-1,-1,-1,-1,-1,70,-1,74,-1,-1,-1,80,82,84,86,-1,-1,92,94,96,-1,100,102,104,106,108,-1,-1,-1,-1,-1,-1,-1,-1,-1,-1,-1,-1,-1,-1,-1,-1,-1,-1,-1,-1,-1,-1,-1,-1,-1,-1,-1,-1,-1,-1,-1,-1,-1,-1,-1,-1,-1,-1,-1,-1,-1,-1,-1,-1,-1,-1,-1,-1,-1,-1,-1],"split_conditions":[5E-1,5E-1,5E-1,5E-1,-2.4759954E-1,2.0385501E2,5E-1,5E-1,5E-1,-4.2637747E-2,-2.557555E-1,8.4479996E1,3.2732544E0,5E-1,1.1516E2,3.4748352E0,7.492E1,7.494E1,5E-1,1.3506688E-1,5E-1,-1.6728584E-1,1.9323085E-1,8.32378E1,5E-1,-2.3911561E-1,1.9522983E2,7.230846E1,7.236279E1,-2.3422794E-1,9.3075E1,7.304996E1,2.2113E2,8.3225105E1,2.2792E2,3.262559E-2,2.1087025E-1,-4.8655456E-1,-7.8125566E-2,2.2471736E-1,7.1620755E-2,7.591101E1,2.2118E-1,9.969353E1,-1.723952E-1,1.1843716E-1,-1.465757E-1,5E-1,2.1417947E2,6.3415E1,1.3405208E2,-2.6720867E-1,-6.304635E-2,8.899E1,3.1801329E0,6.7295E1,1.6435386E-1,8.8907135E1,3.3893924E0,3.173606E0,1.05175E2,7.2845E1,2.0101276E-1,1.024186E-1,-1.3042395E-1,-1.8218017E-1,3.5215203E-2,-6.3312046E-2,1.6243157E-1,1.6835584E-1,-2.7374798E-1,3.777083E-2,2.2427441E-1,-1.3805528E-1,2.213449E-1,-4.5526307E-3,-2.7947775E-1,1.6966338E-1,1.4575261E-2,8.0795035E-2,-2.2964527E-1,1.4996055E-1,-7.416693E-2,-1.535376E-1,2.4952412E-1,-3.5800183E-1,1.3173361E-1,-5.2281737E-2,-2.8821558E-1,-1.7492543E-1,8.856977E-2,-2.2338E-2,1.604296E-1,6.4091355E-2,-1.3302688E-1,1.7988466E-2,-2.1077615E-1,2.260775E-1,-4.2245436E-2,-2.7752924E-1,-1.5220246E-1,-2.2244337E-1,2.1932541E-1,1.4116442E-1,-1.9685231E-1,1.5121172E-1,-5.3362783E-2,2.0590942E-2,-3.0180898E-1,-8.850812E-3,1.3593718E-1,2.2341417E-1,8.094973E-2],"split_indices":[2,10,6,8,4,4,9,9,6,2147483647,2147483647,4,12,15,4,12,4,4,15,4,15,0,12,4,8,0,4,4,4,12,4,4,4,4,4,2147483647,2147483647,0,4,2147483647,2147483647,4,12,4,12,4,0,15,4,4,4,2147483647,2147483647,4,12,4,4,4,12,12,4,4,0,2147483647,2147483647,2147483647,2147483647,2147483647,2147483647,12,0,2147483647,2147483647,0,0,2147483647,2147483647,2147483647,2147483647,0,0,0,0,0,0,0,0,2147483647,2147483647,2147483647,2147483647,0,0,0,0,0,0,2147483647,2147483647,0,0,0,0,0,0,0,0,0,0,2147483647,2147483647,2147483647,2147483647],"split_type":[0,0,0,0,0,0,0,0,0,0,0,0,0,0,0,0,0,0,0,0,0,0,0,0,0,0,0,0,0,0,0,0,0,0,0,0,0,0,0,0,0,0,0,0,0,0,0,0,0,0,0,0,0,0,0,0,0,0,0,0,0,0,0,0,0,0,0,0,0,0,0,0,0,0,0,0,0,0,0,0,0,0,0,0,0,0,0,0,0,0,0,0,0,0,0,0,0,0,0,0,0,0,0,0,0,0,0,0,0,0,0,0,0],"sum_hessian":[6.3950385E2,5.381037E2,1.014001E2,5.1423376E2,2.3869982E1,2.7294708E1,7.410539E1,2.2899103E2,2.852427E2,1.1518363E0,2.2718145E1,1.7308336E1,9.986372E0,6.7652336E1,6.453055E0,1.6825974E2,6.07313E1,1.3147415E2,1.5376854E2,1.0474491E1,6.8338456E0,1.025443E0,8.960929E0,5.8335896E1,9.316443E0,2.4877903E0,3.9652648E0,1.1829428E2,4.9965454E1,1.0869987E1,4.9861313E1,3.3281826E1,9.819233E1,1.2152298E2,3.2245567E1,5.062876E0,5.411615E0,3.5382683E0,3.295577E0,6.4445066E0,2.5164218E0,9.024086E0,4.931181E1,6.3966913E0,2.919752E0,2.7899048E0,1.17536E0,1.0646425E1,1.0764786E2,1.3119459E1,3.6845993E1,8.643684E0,2.2263021E0,2.3049515E1,2.6811798E1,2.7856165E1,5.4256625E0,9.105145E1,7.140875E0,2.7009953E1,9.451302E1,2.7361101E1,4.8844657E0,3.805707E0,1.257169E0,1.4015194E0,1.8940578E0,1.1341056E0,1.3823164E0,8.000199E0,1.0238864E0,1.0372746E0,4.8274536E1,1.0218828E0,5.374809E0,1.5432917E0,1.3764602E0,1.4441036E0,1.3458012E0,8.605584E0,2.0408406E0,1.0510349E2,2.544362E0,1.0356705E0,1.2083788E1,1.1724411E1,2.5121584E1,1.0802435E0,7.5634413E0,1.1925606E0,1.0337415E0,1.5527257E1,7.522257E0,2.8156648E0,2.3996134E1,1.8469908E1,9.386257E0,4.1049786E0,1.3206838E0,2.4839632E1,6.621182E1,1.7467985E0,5.3940763E0,6.818102E0,2.019185E1,5.6657444E1,3.785558E1,7.6628337E0,1.9698269E1,1.051397E0,2.7543101E0,3.9536762E0,4.046523E0],"tree_param":{"num_deleted":"30","num_feature":"17","num_nodes":"113","size_leaf_vector":"0"}},{"base_weights":[-3.1803697E-2,2.5118976E-3,-1.0044986E0,8.868894E-2,-4.403654E-1,2.6862264E-1,-2.6157707E-1,-7.1795166E-1,-2.1442914E-1,4.17917E-1,-3.7477118E-1,-3.0033556E-1,4.9760276E-1,-2.7515343E-1,-1.1648593E0,-3.5492866E-3,-8.308567E-1,3.4706758E-3,5.766978E-1,-7.658244E-1,-5.2291375E-2,8.24612E-2,-3.792721E-1,6.969062E-1,-4.7758082E-1,-4.351529E-2,-8.411119E-1,-1.2506601E0,-6.4807284E-1,-7.117352E-1,2.4859452E-1,-1.1836784E0,4.2166933E-1,2.2686587E-1,-3.690397E-1,6.165649E-1,2.120568E-1,-4.3354368E-1,-9.6448535E-1,7.091498E-1,-2.8607786E-1,-9.1245776E-1,4.3632528E-1,-4.6587902E-1,-6.391685E-2,7.4367315E-1,2.0350721E-1,-8.739391E-1,3.2310742E-1,-8.1680846E-1,-2.6543167E-1,-9.1248256E-1,-1.2915781E-1,2.538076E-2,5.801674E-1,-1.4069524E0,-7.035146E-1,7.682687E-1,-2.4099419E-1,1.7803855E-2,1.005039E0,-1.2457713E0,4.1782078E-1,5.1157904E-1,7.021945E-1,-7.467303E-3,9.143325E-1,-7.190052E-1,-8.2189046E-2,-1.1157581E0,-3.561519E-1,9.489882E-1,-4.9247986E-1,-9.920091E-1,-1.3693479E-1,-7.3154974E-1,6.836431E-1,-3.6986214E-1,-6.539553E-1,9.161741E-1,-2.3899709E-1,8.51062E-1,-1.4022224E-1,-1.8969378E-1,-9.994713E-1,1.5834518E-1,-4.5704803E-1,2.273831E-1,-4.5971456E-1,8.351873E-1,1.0516126E-2,3.3505764E-2,-1.0204933E0],"categories":[],"categories_nodes":[],"categories_segments":[],"categories_sizes":[],"default_left":[true,true,false,true,true,true,true,true,true,true,true,true,true,true,true,true,true,true,true,true,true,true,true,true,false,true,false,true,true,true,true,true,true,true,true,true,true,true,true,true,true,false,true,true,true,true,true,false,true,true,true,true,true,true,true,true,true,true,true,false,false,false,false,true,true,false,false,true,true,true,true,false,false,false,false,false,false,false,false,false,false,false,false,true,true,true,true,false,false,false,false,true,true],"id":11,"left_children":[1,3,-1,5,7,9,11,13,15,17,19,21,23,25,-1,29,31,33,35,-1,39,41,43,-1,-1,47,-1,-1,-1,-1,53,-1,-1,59,61,-1,65,-1,-1,71,73,-1,75,77,79,-1,-1,-1,81,-1,-1,-1,-1,87,89,-1,-1,-1,-1,-1,-1,-1,-1,-1,-1,-1,-1,-1,-1,-1,-1,-1,-1,-1,-1,-1,-1,-1,-1,-1,-1,-1,-1,-1,-1,-1,-1,-1,-1,-1,-1,-1,-1],"loss_changes":[1.9739662E1,2.1875977E1,0E0,3.0309036E1,5.70166E0,3.0650173E1,4.955488E0,7.8856773E0,6.8732986E0,1.6985306E1,7.5663633E0,4.7457886E0,1.9479487E0,2.8658032E0,9.0890884E-2,7.394196E0,6.4558306E0,6.1177826E0,2.5823593E0,1.3764992E0,6.2785597E0,1.0078098E1,3.5079117E0,1.725316E-2,0E0,5.386255E0,0E0,0E0,1.0408902E-1,1.1535249E0,2.2461195E0,1.6582966E-1,1.0349092E0,7.4569693E0,1.9535603E1,1.1484985E0,3.0775335E0,1.1433842E0,1.0932226E0,2.8608065E0,2.688461E0,0E0,6.5534887E0,1.5903702E0,5.206765E0,0E0,0E0,0E0,3.1427598E0,0E0,0E0,3.0838346E-1,4.44818E-1,1.9959918E0,1.7700257E0,0E0,1.3007715E0,0E0,0E0,0E0,0E0,0E0,0E0,0E0,0E0,0E0,0E0,0E0,0E0,0E0,0E0,0E0,0E0,0E0,0E0,0E0,0E0,0E0,0E0,0E0,0E0,0E0,0E0,0E0,0E0,0E0,0E0,0E0,0E0,0E0,0E0,0E0,0E0],"parents":[2147483647,0,0,1,1,3,3,4,4,5,5,6,6,7,7,8,8,9,9,10,10,11,11,12,12,13,13,14,14,15,15,16,16,17,17,18,18,19,19,20,20,21,21,22,22,23,23,25,25,28,28,29,29,30,30,31,31,32,32,33,33,34,34,35,35,36,36,37,37,38,38,39,39,40,40,42,42,43,43,44,44,48,48,51,51,52,52,53,53,54,54,56,56],"right_children":[2,4,-1,6,8,10,12,14,16,18,20,22,24,26,-1,30,32,34,36,-1,40,42,44,-1,-1,48,-1,-1,-1,-1,54,-1,-1,60,62,-1,66,-1,-1,72,74,-1,76,78,80,-1,-1,-1,82,-1,-1,-1,-1,88,90,-1,-1,-1,-1,-1,-1,-1,-1,-1,-1,-1,-1,-1,-1,-1,-1,-1,-1,-1,-1,-1,-1,-1,-1,-1,-1,-1,-1,-1,-1,-1,-1,-1,-1,-1,-1,-1,-1],"split_conditions":[5E-1,5E-1,-2.5112465E-1,5E-1,1.0115744E2,5E-1,2.35065E2,5E-1,2.061932E2,5E-1,1.02115005E2,6.8104996E1,2.50055E2,8.675249E1,-2.9121482E-1,5E-1,2.4108E2,9.792682E1,5E-1,-1.914561E-1,1.05175E2,5E-1,1.8214792E2,1.7422655E-1,-1.19395204E-1,7.3095E1,-2.1027797E-1,-3.1266502E-1,-1.6201821E-1,-1.779338E-1,1.9179501E2,-2.959196E-1,1.0541733E-1,9.611E1,1.6193658E2,1.5414123E-1,1.9111073E2,-1.0838592E-1,-2.4112134E-1,5E-1,1.118E2,-2.2811444E-1,5.9904915E1,9.617956E1,1.8638419E2,1.8591829E-1,5.0876804E-2,-2.1848477E-1,7.695E1,-2.0420212E-1,-6.635792E-2,-2.2812064E-1,-3.2289453E-2,4.963891E0,2.0066E2,-3.517381E-1,-1.7587864E-1,1.9206718E-1,-6.0248546E-2,4.450964E-3,2.5125974E-1,-3.1144282E-1,1.04455195E-1,1.2789476E-1,1.7554863E-1,-1.8668257E-3,2.2858313E-1,-1.797513E-1,-2.0547261E-2,-2.7893952E-1,-8.903798E-2,2.3724705E-1,-1.23119965E-1,-2.4800228E-1,-3.4233697E-2,-1.8288743E-1,1.7091078E-1,-9.2465535E-2,-1.6348882E-1,2.2904353E-1,-5.974927E-2,2.127655E-1,-3.505556E-2,-4.7423445E-2,-2.4986783E-1,3.9586294E-2,-1.1426201E-1,5.6845777E-2,-1.1492864E-1,2.0879683E-1,2.6290314E-3,8.376441E-3,-2.5512332E-1],"split_indices":[10,14,0,15,4,16,4,11,4,11,4,4,4,4,9,11,4,4,9,4,4,11,4,4,0,4,0,2147483647,2147483647,4,4,4,4,4,4,4,4,2147483647,2147483647,11,4,0,4,4,4,2147483647,2147483647,0,4,2147483647,2147483647,2147483647,2147483647,13,4,2147483647,2147483647,2147483647,2147483647,0,0,0,0,2147483647,2147483647,0,0,2147483647,2147483647,2147483647,2147483647,0,0,0,0,0,0,0,0,0,0,0,0,2147483647,2147483647,2147483647,2147483647,0,0,0,0,2147483647,2147483647],"split_type":[0,0,0,0,0,0,0,0,0,0,0,0,0,0,0,0,0,0,0,0,0,0,0,0,0,0,0,0,0,0,0,0,0,0,0,0,0,0,0,0,0,0,0,0,0,0,0,0,0,0,0,0,0,0,0,0,0,0,0,0,0,0,0,0,0,0,0,0,0,0,0,0,0,0,0,0,0,0,0,0,0,0,0,0,0,0,0,0,0,0,0,0,0],"sum_hessian":[5.9031104E2,5.711586E2,1.9152424E1,4.7879272E2,9.236588E1,3.1645898E2,1.6233374E2,4.046847E1,5.1897408E1,2.5714175E2,5.9317234E1,1.550237E2,7.310047E0,2.1139269E1,1.9329205E1,3.9418198E1,1.2479207E1,7.150992E1,1.8563184E2,2.6186968E1,3.313027E1,2.6494755E1,1.2852895E2,6.306511E0,1.0035362E0,1.5764136E1,5.375132E0,1.5359101E1,3.9701033E0,9.871051E0,2.9547148E1,9.779426E0,2.6997814E0,4.4946434E1,2.6563482E1,1.6671371E2,1.891812E1,1.0989031E1,1.5197937E1,7.304907E0,2.582536E1,6.5369654E0,1.9957788E1,1.0046157E2,2.8067366E1,5.297172E0,1.0093389E0,4.4043183E0,1.1359818E1,1.9677247E0,2.0023787E0,6.920177E0,2.9508743E0,1.830251E1,1.1244639E1,5.3578844E0,4.421541E0,1.6679912E0,1.0317903E0,3.6234615E1,8.711821E0,1.2288376E1,1.4275106E1,7.802532E1,8.868839E1,1.5166574E1,3.7515464E0,5.485722E0,5.503309E0,1.1503316E1,3.6946208E0,6.2647476E0,1.040159E0,3.518767E0,2.2306593E1,3.145638E0,1.6812151E1,6.8471825E1,3.1989748E1,3.612406E0,2.445496E1,4.9184766E0,6.441342E0,1.0850635E0,5.8351135E0,1.8477745E0,1.1030998E0,1.3296761E1,5.005748E0,7.445377E0,3.799263E0,1.59868E0,2.8228612E0],"tree_param":{"num_deleted":"26","num_feature":"17","num_nodes":"93","size_leaf_vector":"0"}},{"base_weights":[-3.6428384E-2,-6.9183695E-1,1.1422607E-1,-9.234628E-1,-4.6218282E-1,-7.6843537E-3,3.8780835E-1,-1.0482515E0,-5.283208E-1,-2.512974E-1,-7.495774E-1,-1.8821149E-1,1.404636E-1,5.009939E-1,-2.3288335E-1,5.706178E-1,-9.789749E-1,-4.3975714E-1,7.47875E-1,-1.0029131E0,1.8736742E-1,-8.5424167E-1,-6.959243E-2,4.4571303E-2,6.361172E-1,5.6301826E-1,-3.33798E-1,-5.073903E-1,4.2327604E-1,9.672637E-1,1.4547509E-2,-9.000373E-1,-1.7857233E-1,3.9134306E-1,1.03319E0,-1.0557061E0,-6.127899E-2,5.1047075E-1,-6.336921E-1,-4.809086E-1,-1.0132881E0,1.145689E0,-1.1288717E-1,1.2364692E-1,-8.210314E-1,7.561459E-1,-8.562989E-1,2.4880958E-1,6.8258643E-1,-8.371422E-1,7.512648E-1,-7.171863E-1,-8.116578E-3,-5.2981514E-1,7.93732E-1,6.220666E-2,-9.675615E-1,6.7073387E-1,-2.0723033E-1,6.7341244E-1,9.4529806E-4,-8.3861554E-1,5.034503E-1,-1.1424781E0,-2.0361809E-2,-2.0621745E-1,3.411092E-1,7.944581E-2,9.8992366E-1,-3.120794E-1,-1.332229E0,8.7525916E-1,-2.0155862E-1,3.3528465E-1,-9.0944403E-1,4.6400225E-1,8.5100865E-1,6.1901E-2,-1.102742E0,1.2931788E-1,-9.7592294E-1,3.9571387E-1,-9.666171E-1,9.622189E-1,8.626132E-2,-4.66419E-1,4.209417E-1,-5.782245E-2,-9.704782E-1,-2.8499654E-1,-1.218086E0,-5.1221865E-1,1.3669123E-1,5.759821E-1,-7.1310985E-1,4.6413198E-1,2.9097737E-3,-7.3355764E-1,3.2387465E-1,9.019499E-1,1.3161157E-1,5.53123E-1,-6.942511E-1,-2.31858E-2,5.390778E-1,8.5456896E-1,1.2896861E-1,7.324917E-2,8.81148E-1,-5.003054E-1,5.800421E-1,-5.1245403E-1,-1.2285676E0,-1.6823374E-1,6.885292E-1],"categories":[],"categories_nodes":[],"categories_segments":[],"categories_sizes":[],"default_left":[true,true,true,true,true,true,true,false,true,true,true,true,true,true,true,true,false,true,true,true,true,true,true,true,true,true,true,true,true,true,true,false,true,true,true,true,true,true,false,true,true,false,true,true,true,true,false,true,true,true,false,true,true,false,true,true,false,true,true,true,true,true,false,true,false,true,true,true,false,true,false,true,true,true,false,true,true,false,false,true,true,true,false,true,true,false,false,true,true,true,true,false,false,false,false,false,false,false,false,true,true,false,false,false,false,false,false,true,true,true,true,true,true,true,true],"id":12,"left_children":[1,3,5,7,9,11,13,-1,15,17,19,21,23,25,27,-1,-1,31,-1,-1,37,39,41,43,45,47,49,51,53,-1,-1,-1,55,-1,-1,-1,-1,-1,-1,61,63,-1,65,67,69,71,-1,73,75,77,-1,79,81,-1,-1,85,-1,-1,-1,-1,-1,-1,-1,-1,-1,91,93,95,-1,97,-1,-1,101,103,-1,105,-1,-1,-1,-1,-1,-1,-1,-1,-1,-1,-1,-1,-1,-1,-1,-1,-1,-1,-1,-1,-1,-1,-1,-1,-1,-1,-1,-1,-1,-1,-1,-1,-1,-1,-1,-1,-1,-1,-1],"loss_changes":[5.5630783E1,5.17416E0,1.5288835E1,1.9816551E0,3.1373844E0,8.531738E0,1.004303E1,0E0,7.6690016E0,6.5719147E0,5.580697E0,1.129907E1,8.30099E0,6.3918743E0,4.2628517E0,1.0462191E0,0E0,3.2682261E0,1.685102E-1,8.3218384E-1,1.8298283E0,7.9797935E-1,6.6076293E0,1.0225902E1,5.722831E0,4.034359E0,5.4977026E0,1.7015514E0,2.9535728E0,0E0,0E0,0E0,3.7540858E0,8.2683223E-1,0E0,0E0,0E0,3.8363922E-1,0E0,3.3693657E0,1.8080034E0,0E0,5.1464844E0,5.144211E0,2.8395967E0,3.2284832E0,0E0,3.5520658E0,2.5681496E0,1.635325E0,0E0,2.6374884E0,2.6407814E0,0E0,5.805154E-1,3.1997137E0,0E0,0E0,0E0,0E0,0E0,6.145711E-1,0E0,4.7065926E-1,0E0,1.0562573E1,5.5622597E0,3.8516688E0,0E0,2.2681985E0,0E0,3.5730934E-1,1.7866584E0,2.2697077E0,0E0,4.7608614E0,9.729576E-1,0E0,0E0,1.3025112E0,4.1239643E-1,9.10842E-1,0E0,0E0,0E0,0E0,0E0,0E0,0E0,0E0,0E0,0E0,0E0,0E0,0E0,0E0,0E0,0E0,0E0,0E0,0E0,0E0,0E0,0E0,0E0,0E0,0E0,0E0,0E0,0E0,0E0,0E0,0E0,0E0,0E0],"parents":[2147483647,0,0,1,1,2,2,3,3,4,4,5,5,6,6,8,8,9,9,10,10,11,11,12,12,13,13,14,14,15,15,17,17,18,18,19,19,20,20,21,21,22,22,23,23,24,24,25,25,26,26,27,27,28,28,32,32,33,33,37,37,39,39,40,40,42,42,43,43,44,44,45,45,47,47,48,48,49,49,51,51,52,52,54,54,55,55,61,61,63,63,65,65,66,66,67,67,69,69,71,71,72,72,73,73,75,75,76,76,79,79,80,80,81,81],"right_children":[2,4,6,8,10,12,14,-1,16,18,20,22,24,26,28,-1,-1,32,-1,-1,38,40,42,44,46,48,50,52,54,-1,-1,-1,56,-1,-1,-1,-1,-1,-1,62,64,-1,66,68,70,72,-1,74,76,78,-1,80,82,-1,-1,86,-1,-1,-1,-1,-1,-1,-1,-1,-1,92,94,96,-1,98,-1,-1,102,104,-1,106,-1,-1,-1,-1,-1,-1,-1,-1,-1,-1,-1,-1,-1,-1,-1,-1,-1,-1,-1,-1,-1,-1,-1,-1,-1,-1,-1,-1,-1,-1,-1,-1,-1,-1,-1,-1,-1,-1,-1],"split_conditions":[4.5139526E1,3.15E1,5E-1,3.3990197E0,3.4094949E0,5E-1,5E-1,-2.6206288E-1,3.430756E0,3.3860824E0,5E-1,5.2035545E1,7.801005E1,5E-1,7.654263E1,1.4265445E-1,-2.4474372E-1,5E-1,1.8696874E-1,-2.5072828E-1,3.673753E0,3.3087149E0,5.2942696E1,7.3984665E1,8.1977615E1,5E-1,3.6162944E0,3.6448197E0,5E-1,2.4181592E-1,3.6368773E-3,-2.2500932E-1,4.1912643E1,9.7835764E-2,2.582975E-1,-2.6392654E-1,-1.5319748E-2,1.2761769E-1,-1.5842302E-1,3.2695618E0,5E-1,2.8642225E-1,3.617651E0,7.301624E1,3.3086748E0,5E-1,-2.1407473E-1,3.6176438E0,6.900039E1,3.3087149E0,1.878162E-1,3.299527E0,3.7808905E0,-1.3245378E-1,1.98433E-1,3.2349062E0,-2.4189037E-1,1.6768347E-1,-5.1807582E-2,1.6835311E-1,2.3632451E-4,-2.0965388E-1,1.2586257E-1,-2.8561953E-1,-5.0904523E-3,7.4011795E1,6.797725E1,4.999569E1,2.4748091E-1,7.7004E1,-3.3305725E-1,2.1881479E-1,7.89994E1,5E-1,-2.2736101E-1,5.295623E1,2.1275216E-1,1.547525E-2,-2.756855E-1,3.232947E-2,-2.4398074E-1,9.892847E-2,-2.4165428E-1,2.4055472E-1,2.156533E-2,-1.1660475E-1,1.0523543E-1,-1.4455613E-2,-2.4261954E-1,-7.1249135E-2,-3.045215E-1,-1.2805466E-1,3.4172807E-2,1.4399552E-1,-1.7827746E-1,1.16032995E-1,7.2744343E-4,-1.8338941E-1,8.096866E-2,